4555 10
</s> 0.04002685472 0.04419403151 -0.03830261156 -0.03278045729 0.01366577111 0.03021087684 0.009408568963 0.002113342285 -0.03603515774 0.02218475379 
the 0.01784404181 -0.02550983243 -0.2465870678 1.394658566 0.5410946012 0.2042221278 0.4590632021 0.5532645583 1.354490757 0.334038198 
. 0.04583334178 -0.7035834789 0.003125272691 0.9809362292 0.3157440424 1.363103867 -0.1289633065 -0.547395587 -0.2352751642 -0.001415706007 
, -1.026113033 -0.6800428629 -0.4104731381 0.6988732219 0.5665448904 1.003456593 -0.2827399373 -0.2298260927 0.3537213206 0.3250378966 
of -0.07041054219 -0.5198492408 -0.5544548035 -0.2728782892 1.526351333 0.7012860775 0.507601738 0.4149666727 0.7358134389 -0.0958340019 
to -0.5703801513 -0.1319833398 -1.842224002 -0.2350711972 1.420025945 1.518932223 0.8914536238 0.8316717744 0.08817686141 -0.0701341331 
in 0.2549098432 -1.315804482 -0.7804566026 0.1467237175 1.488754153 0.305688113 0.5099807382 1.169112563 0.8730521202 0.708065629 
a -0.3634395599 -0.1561096758 -0.6672100425 0.3388087153 1.052307963 0.9486163259 0.5003957748 0.6562395692 0.7337646484 0.1089701951 
and -0.820292592 -0.5001174212 -0.7551267743 -0.403767705 1.352223277 0.48492679 -0.2313818485 0.03256579861 1.463053465 -0.7126917243 
said -0.4017008543 -0.9095309377 0.206577763 3.31402874 0.5336511135 2.937718153 -1.011373878 -0.5744818449 -1.777411819 0.2971983254 
" -0.2436682582 1.73264122 -1.190177321 2.797653198 0.4772791862 2.495823622 -0.5236465931 -0.2578033209 -0.609596312 0.7855815291 
on 0.3860318363 -3.37721014 -0.871345818 2.584003687 0.2366872728 1.793153524 0.06604246795 1.777433157 -0.6566317677 -0.8164011836 
( 3.220447302 -1.268036604 1.09066546 -0.9972800612 -0.9610280395 0.6511608362 0.1619436741 -2.862723827 2.384212971 -0.4544594586 
) 3.05692029 -2.051626444 1.314332128 -0.7345705032 -1.573900104 1.258009791 -0.6278701425 -1.295749903 2.371626139 -0.405598253 
- 0.736238122 -0.3723303676 1.026178241 0.8402580023 -1.60938859 1.409997106 0.6300866008 -3.809755802 0.2103133798 2.569586039 
at -1.436076045 -1.444602013 0.8654651046 0.5774842501 -0.625844121 1.9681952 2.864308834 0.004430385306 -0.7226641774 -0.6545661092 
for 0.2879077494 -0.825099051 -1.151944399 -0.1818682104 1.479144692 1.345991731 0.4834305048 1.31875658 0.1173261181 0.7729778886 
's 1.124918461 -1.726279855 -0.6030376554 1.190104008 1.340044618 1.327333093 -0.7302172184 0.808509469 0.2478844821 -0.3975225091 
was -0.9247394204 -0.3121363521 -0.7074955702 1.628979564 0.7828506827 1.886240005 1.79827702 0.1764046401 -1.152089238 -0.6949096322 
$ -0.008841239847 -0.0779652968 -0.4509443641 -1.827757239 -2.222679377 1.669092298 4.698321342 -1.980762005 0.123308681 -0.4237647057 
percent -2.514371395 -1.200293541 -0.7898124456 -1.311252832 -0.8153295517 -0.07018113881 3.844764233 0.6118565798 1.237563372 2.940633535 
from 0.07187495381 -1.78803277 -0.8776368499 -0.2433106154 0.3233821392 1.436213732 1.93423605 1.520005107 -0.007208502386 -0.1584112942 
with -1.01057601 -0.9512969851 -0.1239398569 0.2793620825 1.489268064 2.155231953 -0.009992493317 1.764280081 0.2122584432 -0.5821532607 
it 0.1937496364 1.645692348 -0.5348677635 2.579450369 0.6084392071 1.154127121 -0.3984496295 -0.109355703 0.7082254291 0.6707004309 
million -0.2747959495 0.1395631135 0.03753348067 -3.943154573 0.4845235646 2.108295918 3.934251547 -1.224101186 0.3640064001 0.1033447385 
is -0.1979488283 1.795936942 -0.3248258531 0.4104021788 2.535729885 1.979476452 0.6782778502 -1.653023839 -0.8220707178 0.004491022788 
that -0.08467199653 0.9851464033 -1.305322886 2.68927145 1.052999735 1.584138036 -1.215230227 1.272447944 1.1921736 1.034091115 
by -1.035221338 -2.173093081 0.485666275 -0.08572944254 1.678456306 1.106896758 -0.1793522388 1.329267979 0.6574607491 -0.53211236 
as -0.5308693647 -0.383453697 -0.3233574927 1.604370236 1.227584481 1.339861751 -0.02962432988 1.131876349 0.8559608459 -1.449141622 
friday -1.461588502 -0.01155652199 3.302850008 2.991111755 1.069600821 -0.4018048942 0.7870610356 -1.631641269 0.9032309651 -1.056141615 
market -0.4081133008 -0.04454920813 -0.7161294818 3.914007425 -1.784892678 0.2265908867 1.571670175 -0.05628198758 0.8995634317 -1.265678644 
were -2.112398624 -0.3125531375 0.1679276824 1.090157866 0.502278924 2.339044094 1.276632667 0.1134240106 -0.8321028352 -1.134887099 
up -2.09106946 -0.7401793003 0.198004052 -0.72950387 -1.267522693 0.7902573347 3.189329624 0.6424407959 1.1979599 -0.6889030933 
but -0.7534186244 0.7843866348 -1.887905717 2.32276988 0.7462436557 1.235066652 0.8157438636 0.8486549258 0.4747579694 -0.4604460895 
its 0.3072613776 -0.592107594 -0.4082495272 0.2126166821 0.9893752337 0.4778869152 0.1528462172 0.7252677679 1.40797472 -0.5027151108 
be -0.2940808237 5.368062973 -0.5667480826 2.735174417 -4.248804092 1.137609243 -0.4001457393 0.6699981093 5.214717865 0.7011073232 
year 1.434425592 3.682509184 -0.3395256102 -0.04460898042 2.940558672 -1.936298847 6.215934277 -2.867815495 1.030407667 0.9937822223 
an -0.5481596589 0.309328109 -1.00925827 0.05254006013 1.437092423 0.8446927667 -0.5681795478 0.03048165329 1.315890908 -0.1815294027 
+ -2.253787041 -3.966348171 0.6561338305 -0.8168672919 -2.891858339 3.561590195 -0.4601658583 -3.38812542 0.3443687558 7.050064087 
will 1.212022662 -0.7225918174 -3.522011995 -0.8118929863 6.489709377 3.258366823 1.255661964 -0.6084424853 -4.01487112 -0.5511826873 
has -1.419759631 -0.6112145185 1.017047286 0.00409775367 4.265012264 4.197958946 -1.246382713 1.041356802 -1.535818934 -1.145097971 
he -1.165026426 3.11704278 -0.8549407721 3.08949542 1.371668458 0.0841230303 -1.137624264 -1.375470161 1.845903635 2.026507854 
this 0.4781166911 0.2738775015 -0.2720072865 2.63451767 -0.8601953387 2.283941746 -0.9268060923 5.446502209 2.112105608 4.586845398 
after -0.5348666906 -2.873521328 -0.8700215816 0.6652675271 1.220605612 1.341335297 0.749720335 3.503430367 0.4039820135 -0.2354311943 
had -1.531639814 -0.65787673 1.014338374 1.002508998 3.693512678 4.851472378 -0.4472010136 1.697786927 -2.582839251 -0.6595723033 
are -0.7511923313 2.668902397 -0.4583321512 0.9146125913 1.157317758 2.842859268 0.7744115591 -0.5025991201 -0.5133323669 -0.05698384345 
bank 2.993332624 -3.212813377 1.342639327 4.465045929 -0.219465062 -0.7445982695 -0.396145463 -0.7233416438 0.4485327303 0.1592681408 
/ 2.239008427 -2.5041008 0.5097529292 -0.1107830554 -1.635596871 4.681569099 1.337969661 -2.574945688 -2.641067982 0.736115694 
week 0.2438302338 2.175189018 -0.3698967695 2.517237663 2.535052061 -2.224281311 6.98758316 -4.683500767 -0.6840636134 -2.709266424 
u.s. 0.3201758862 -1.102119803 0.5244451165 1.0815413 -0.4887314439 -1.42668426 0.9278306365 -1.617596269 2.933160305 -1.643387675 
thursday -1.54928875 0.08327114582 3.170308828 2.718654156 -0.3768744767 -0.5411886573 2.270791769 -1.711075068 1.056935906 -1.658718228 
not -0.5296862721 3.874073267 -1.306032181 2.587099075 -0.4618828893 2.578604937 -1.597265124 -0.8407172561 1.429958344 0.4606747627 
shares -4.972882748 -0.7989641428 3.172156811 -0.5924813151 -0.3051415682 0.299208343 1.405133724 -1.387949228 2.005192041 -1.646734118 
have -2.016172171 2.758418798 0.5906531811 0.1565636694 0.4015042782 5.255530834 -1.095182419 1.430883646 0.2063873708 -1.121670008 
which -1.338228703 -0.1724916995 -0.4169614613 -0.02060068212 -0.1286886036 -0.2335231751 -0.5561196804 0.1813777983 2.532990217 -0.4984181225 
new -3.286705017 0.7427145839 5.752352238 0.3948510289 3.728918791 1.755115628 0.8915491104 -1.550898552 -0.9419173002 2.198040247 
one -1.647035122 0.3858347833 -0.8531246185 1.277973533 -0.5256074667 1.82566452 0.3809981346 0.4127754867 -0.2360685468 0.6289268732 
last 0.3575564325 -1.464951634 -1.581620336 0.5943447351 -1.236068726 1.994730353 0.2350408435 5.572156429 1.476096869 5.136539459 
vs 1.903562546 2.087453604 5.38698101 -4.870893478 2.709973335 5.427513599 1.998111725 -1.345587254 5.320445538 -0.5577059984 
billion 0.6826896071 -1.805977345 -0.7225886583 -3.032325268 0.02492104843 0.9792301655 4.802543163 0.6872667074 0.5353019238 1.370380282 
would 0.8721665144 -0.5085203648 -3.959166765 -0.5691714883 5.426538467 3.802229404 0.7244968414 -0.1866182834 -3.690769911 0.008076631464 
july -0.005427902564 -1.318249345 0.1726447791 0.21299389 1.191321135 -1.712368608 4.080376148 -1.189731836 0.7335929871 3.768116713 
company -0.4213557541 0.2691931129 -0.06434226036 0.6199892163 1.603235722 -0.01203599758 -1.431545734 -1.388450861 1.203736424 0.8790347576 
prices -1.352692485 -1.540403247 0.2252411693 2.771806955 -2.030163765 -0.8188825846 2.543622255 -0.9904062152 1.365660071 -1.472427249 
newsroom -1.428791761 -3.503020525 -5.013041973 1.531166553 -7.249572754 2.724230766 -4.555332661 -5.168932438 2.751668453 3.357177019 
they -0.8501119018 2.361789703 -1.546584249 3.667269468 -0.2599356174 -0.03516212478 0.2577221692 -0.8886458278 1.654311061 0.2960979939 
down -1.683861613 -0.5368511677 0.8778720498 0.1199980006 -1.974431753 0.5261540413 4.156259537 0.2372809052 1.350583792 -0.5893850327 
: 3.586893559 0.4570760727 2.117137909 0.8308340907 -1.267352343 2.741814375 0.6466928124 -2.374065399 0.2552552819 1.948907971 
two -2.747305155 1.655723333 -1.103686929 -0.6465495825 1.677776694 -0.2613787353 1.301656961 0.4635603428 2.86815238 -0.3465398848 
net 1.831693888 -0.05514222756 2.125700235 -3.899577379 2.856452227 1.613286734 2.450829744 1.188942432 3.622749329 1.314189792 
september 0.4228105843 -0.7473846078 1.055637836 1.619266987 -1.140803814 -0.3706511855 3.881049633 -1.655243635 -0.06785793602 0.2647930682 
1996 2.740925789 -0.607092917 0.8404390216 -0.1472436637 0.5817703009 0.4917055666 3.278765202 0.6234797239 0.8714499474 3.52357173 
yen 1.160228491 -1.958428264 2.963855267 -3.751726866 1.466860652 2.063635826 3.468436003 -2.433516979 1.480908632 -3.07050705 
first 1.778529286 0.5792812705 -0.6348244548 0.04659570009 3.613451958 0.007667494938 1.821244836 2.644789934 1.955510736 3.356640577 
been 1.238367677 2.43005228 -7.922970295 2.103973866 -0.9902415872 -0.7475193143 0.4253401458 -1.137210011 3.010826588 -2.058353424 
we -0.0605562292 5.652516842 -1.750157833 2.468287945 0.378559649 2.165685892 -0.1042011976 -1.556407571 1.988342643 0.417241931 
points -6.430223942 -0.2103524506 0.2833438516 1.384477854 -4.552739143 0.2921746373 5.959033966 -1.064991951 2.182631969 1.718617082 
his -0.8831421733 1.833658338 -1.573781729 -0.2014660835 2.326161623 0.6351762414 -1.299739242 2.29521203 4.195474625 -0.165059492 
or -1.472590923 0.0008535899688 -1.28340435 -0.671664238 -1.006155133 1.856595755 1.951025009 0.454595834 0.3109856844 0.07588309795 
also -0.5027276278 0.09914994985 -0.379358083 1.859868526 -0.08562882245 0.4693198204 -0.5164707899 0.3847530782 1.777586818 -0.4616780579 
june -1.347408533 -0.5841084719 0.7227059603 -1.197879553 0.847215116 -0.3672831059 4.639334202 -0.3055130839 1.412721872 6.413951397 
i 1.626026392 6.864918709 0.3138233125 3.667169571 0.3610547483 3.445104122 -0.3568755686 -0.8262465596 1.770281434 0.3412756324 
oil -1.457351565 -3.740609646 1.227174044 1.701828003 -0.3462160528 -1.906894803 0.1711569577 -1.588443637 2.483525991 -1.966987491 
pct 2.44576478 -1.158359885 -1.423272252 -1.509868383 -2.304813623 0.4300881028 1.843443274 -1.752048731 2.817890644 4.77952528 
some -0.8226840496 1.556515217 -1.329440355 1.822455645 0.03227410465 1.431700468 1.407183647 -0.01367686596 0.3175803423 -0.8156644106 
cents -3.059385061 0.5777369738 2.676501989 -1.767248988 -2.615600348 2.570597887 4.339802265 -2.283002615 1.052209854 -0.3136633635 
price 1.131374121 0.2595923245 -1.519191027 0.02031529509 -2.946533203 1.434349298 1.82291615 -0.3405461907 0.8277582526 -0.4579834342 
over -0.4744733274 -0.02760079876 -1.714119673 -0.3529009223 1.149176002 1.413387775 1.362854481 1.778695703 0.3652850389 -0.1655871272 
index -3.000335455 -3.596733093 2.399297714 1.222269773 -1.904239178 -0.04536719993 2.578035116 0.1420339644 1.344052792 -1.047795773 
per -0.2226641774 -1.416181326 2.085194588 -1.574197412 -2.567616224 5.210883141 4.721229076 -0.7626279593 -1.013673425 -1.226563454 
rate 4.356581211 -1.154329658 -2.024252415 3.653337479 -2.016769648 -0.7352070808 2.962695599 -0.9809598327 0.8277662992 -2.155585289 
august 1.137245178 -0.7542283535 1.479583502 1.621582866 -0.7896451354 -0.7344093323 3.452312469 -0.8106784225 0.1022406891 2.387786865 
share -0.7468105555 1.739933968 3.151059628 -0.6774016619 -2.343988895 1.488230944 2.513401508 -0.6607127786 2.079541445 -0.9043502808 
trade -0.2357030213 -1.99675703 0.9583984017 1.645952344 -0.3383685946 -0.9903385639 2.213472605 -1.643278241 0.9057019353 -1.284244776 
1 1.802795649 -3.271386623 -0.1049490422 -1.212872624 -1.675145626 1.450838685 0.06654925644 -0.2437206209 0.9461131692 2.15461731 
there -0.899787724 3.357317209 -0.8493248224 3.683745146 0.931866765 1.014844894 0.3881501853 0.001776544144 1.472456574 1.052727342 
higher -0.4519449472 -1.20349896 0.7600538731 2.069755554 -2.252553701 0.3661677241 4.45451498 0.5327237844 1.47960186 -2.975548744 
who -0.8935433626 1.289156079 -1.904408932 0.6063982248 1.175583243 0.1580095291 -1.915287733 1.023197532 3.059403658 0.5199944973 
traders -2.053991795 -0.8400248885 0.8726466298 5.108278751 -1.449975252 0.245464325 2.079470634 -1.282703638 -0.5009106398 0.07597603649 
more 0.2232667655 3.241430759 -3.525804996 0.2678371072 0.002668820787 1.330525398 2.894868135 0.7264483571 1.31217587 -0.5779255033 
rates 2.059672594 1.310928941 -0.9328146577 3.612133265 -1.399767637 -1.417261481 3.485211134 -1.87907505 2.436420202 -3.064328909 
may 1.37352252 0.02750443108 -3.015119553 -0.3869167864 3.523232937 0.6305855513 2.205084324 -0.4879808128 -1.501808763 1.393257499 
close -0.144966051 -1.721957684 1.419146419 1.288871765 -0.7301117182 0.8149050474 2.657379389 0.06292655319 0.2930180132 -1.858834624 
about -1.733919263 0.2501788735 -1.490576982 -1.227936506 0.1622915864 1.693101048 0.9335476756 0.8254309893 0.3414306343 0.1886987239 
stock -0.5805075169 -2.644175291 3.436491013 2.857432127 -0.7173373103 0.3056773245 0.7828630805 0.6054187417 0.4726440609 0.3802044988 
their -1.017939448 1.35224092 -0.3832245171 0.6753454804 1.644815326 -0.232763961 -0.03339608014 1.293721795 3.338486671 -0.1460386813 
total 0.06560473889 -0.9861923456 0.8088774085 -2.44624114 -0.20368357 0.1945642531 0.4641596973 -1.243403435 2.239903212 0.422157079 
out 0.1656206995 1.997392893 -2.735568047 -0.3206589222 0.4729768932 1.485801339 0.4248910844 0.818297565 1.363064647 -1.729005575 
into -0.5401988029 -0.07480597496 -0.9960536957 1.237863064 0.8330205679 1.241288304 -0.02935122512 1.449917197 1.401862621 -1.966762304 
rose -2.278575182 -3.258906841 0.6575629115 -1.127667308 -0.5469677448 0.2536885142 2.935593367 0.7575539947 1.119828105 1.236471534 
than -0.2867331803 2.798234463 -2.287919044 0.1911236644 3.511959553 0.9513571262 3.602217674 -0.8334082365 -0.838331759 2.090556622 
all -1.126657367 1.695901871 0.5176355839 -0.3901868165 0.6919897795 0.9161854386 -0.3537819386 -0.4182243049 2.0303514 -0.8078932166 
closed -3.29599309 -3.225449324 1.665537119 1.732699394 -2.758871078 2.932450056 3.616635084 0.978305757 -0.1682235003 -1.86409235 
next 0.524335742 -0.8011589646 -1.197156191 3.154523134 -2.395151615 1.772369027 -0.6551144123 5.404621601 2.329278231 6.268038273 
group 1.883823276 -0.5746817589 0.5886043906 -0.6593617201 2.236239672 1.445756435 -1.978361249 -0.3686754405 0.8147741556 0.8327708244 
interest 4.119597912 0.002625371795 -0.2215874493 3.618829489 -2.642535448 1.859039187 1.013944507 2.833912611 1.888964415 -1.658534765 
.. 2.892281532 -0.8068355322 -0.7978695035 0.3414865136 6.226144791 1.151688576 -1.347683072 -4.934764385 -0.383813262 0.5195114017 
expected -0.03400799632 0.2594025731 -1.529273748 1.578277469 1.845395088 1.277424455 2.13086009 1.936128855 -0.3012639284 0.8494609594 
other -1.148817778 0.797581017 -0.04454174638 -0.3381173313 2.258397818 0.5595242381 0.3285795152 -0.7203684449 0.7574622631 -0.4360797107 
demand -1.517322302 0.1575853676 -0.5770897865 1.488669515 0.7553824186 -1.080401659 2.117592335 -0.6074465513 1.35919261 0.3196156621 
no 0.6068988442 1.89816463 -2.608958721 2.708806992 -2.162150145 2.647954941 0.3980305493 -1.600166202 -0.3713730872 -0.6676207781 
three -1.675433755 0.6544235945 -0.6826484799 -1.239438653 1.597514868 -0.2437317222 2.841411829 1.567980051 2.102754116 0.8437238932 
government 0.4829570353 -0.04402668029 -1.248295546 1.610757828 0.337996155 -0.3560932577 -1.579802871 -0.605600059 1.262373567 -0.008303431794 
fell -1.640526533 -2.321263552 0.8180456758 -0.4904926121 -2.316937923 1.759523511 3.047185183 0.5292230248 0.7167955637 -0.6229798198 
stocks -3.094239235 -0.8291725516 -0.06163848937 1.917885303 -1.017724276 -1.77533412 2.187669039 -0.7982382178 2.603955984 -0.6202394366 
sales 0.6794548631 0.5705749989 -0.899410069 -0.9134063721 1.211263776 -0.8216308355 1.477453947 0.2651108503 2.264546633 1.501046896 
lower 0.1222567335 -0.8105018735 1.103836894 2.126696348 -1.737682343 0.4629780054 3.70730257 0.8849009275 1.676108837 -2.867051125 
when -0.548599422 -0.2990997434 -1.109361291 0.6056110263 0.8578951359 2.761258602 0.1193126589 2.745757103 0.2741009295 -0.5003823638 
ended -1.479060054 -3.756911278 2.028214216 1.158663154 -0.9559713602 2.077758074 3.828574181 2.019848824 -0.217811361 1.281720519 
trading -2.073154211 -1.628308892 1.287671208 2.730633497 -0.918985188 -0.1656851172 2.246870518 -0.9875524044 0.6980032921 -1.16567421 
foreign 2.520602465 -1.076388359 -0.175650835 1.219465852 2.20135808 0.9479835629 0.4776343405 -1.290421724 -0.9558138251 -1.072060585 
central 4.034122944 0.5437476039 -3.272775173 3.684165001 1.489711404 -1.308551788 3.047291517 -4.223365784 -1.117698669 1.927600503 
while -2.283282757 -0.3140395582 -0.7004008889 -0.6935184002 -0.8728410602 0.7237015963 1.90608263 -0.3356370628 1.152389884 -0.5569682717 
profit 2.225543261 1.80415988 1.707070947 -3.106609821 2.565674067 3.563684225 3.489742041 1.827426434 0.9289256334 0.7508122325 
dollar 0.6029129624 0.4280629456 1.633723497 2.634978533 -2.178799391 -0.9249023199 4.530755043 -1.573657751 1.534599304 -2.196183443 
tonnes 0.07637878507 -0.9487580657 -2.194450855 -1.447946906 -0.4009485245 -1.070609331 3.020248175 -1.759650111 1.275542021 0.7831792235 
against 0.5839463472 -2.641909361 -0.6480817199 0.1181506962 1.064768553 1.393560171 1.015863538 1.336423755 0.02766044438 -2.454111814 
futures -1.673046947 -3.220324755 2.017663956 2.500786781 -1.377419233 0.3180186749 4.646028042 -1.779930115 0.1499936432 -2.905046225 
high -0.1147422418 -1.336698771 -1.022733927 1.618412733 -1.815573692 0.384085238 1.977222443 1.658092618 0.859888792 -0.6355743408 
could 0.1878423393 0.6183155775 -3.380131006 0.4145871699 3.97781992 3.549682617 1.994935751 0.6158669591 -2.855563164 -1.401474595 
* 0.1040499508 -0.7339442372 2.6172719 0.7310684919 -2.216855526 -0.05740038306 0.2598048151 -2.990614891 2.549194098 1.257593989 
end 0.2795866728 -0.1137607694 -0.9042774439 0.06412862241 -1.216108084 0.7792285085 2.329660892 1.452323079 0.8100578785 -0.2477994859 
30 2.148899078 -2.994307518 -0.7213274837 -0.7006340027 0.5610205531 0.3822219372 2.425024271 0.6651827097 0.02082116902 2.24276638 
1995 1.777840853 -0.5320942402 -0.9280004501 -0.9147287607 1.357930064 0.08440022916 2.523147345 0.2166044712 0.5074808002 3.407305479 
off -1.808700442 -0.3971426487 0.6615715027 1.426121831 0.3241500854 0.6055166125 2.089347601 0.7401448488 0.9784502387 -1.128722429 
orders -5.024440765 -3.242020369 -4.259980202 -0.1553821266 4.908166409 -2.560905218 2.326290369 0.6184464693 1.916385293 5.634363651 
ltd 0.6300734878 -2.814617157 3.758675814 2.371765852 2.107438803 1.380303025 -4.043651581 -4.450372696 1.039874673 -0.9202080965 
only -1.293787122 1.263779759 -1.953848362 0.197719723 0.5525562763 0.3860171139 1.35817492 0.679299593 1.046406388 0.2986134291 
10 -0.2573182285 -0.5454436541 -1.096100569 -1.304806948 -0.7768670917 0.9059937596 2.219283104 0.447791487 0.9230595827 -0.0860902071 
analysts -0.004375330638 -0.02320717089 -0.8546885848 3.786912203 0.5386837125 0.6291337013 0.65892452 0.8452610373 -0.4258821607 2.370434523 
six -1.915698528 1.915574193 0.6153801084 -1.46938324 2.014468431 0.2318963408 2.394478083 0.4179154038 1.66192019 3.539484978 
month 0.310177654 2.681568146 -1.686549187 1.151663661 0.70221138 -1.759275317 5.690195084 -2.92832613 0.5880051851 1.653877258 
months -0.2840453684 2.097954988 1.253130674 -0.4134511948 1.995749712 0.2044526339 5.522912502 0.5130043626 0.8428395391 3.665753126 
york -0.2940939963 -4.407766342 -9.679174423 2.032271624 -0.7310143709 -1.483695984 1.770827174 -7.741405964 -1.71790719 -1.565905809 
note 1.187195539 -0.1510424018 5.097681522 0.05904062465 -0.6478392482 2.657860279 -1.025275707 -3.115284443 1.880947948 2.347049475 
second 1.765661359 -0.9284188747 -0.6498369575 1.247189403 1.62160027 -0.4891984463 1.111803293 3.499491215 2.421051979 2.082037926 
volume -3.149611712 -1.010305047 -0.3452767134 0.4414742887 -2.788432598 2.095353603 3.639009476 -0.3446960747 -0.01530855056 -2.596605539 
day -0.4013286233 -0.2195679545 1.82239902 1.756069064 -0.08184595406 -0.7489923835 3.451909065 0.255387634 0.8353116512 -0.7526083589 
still -0.3426170647 1.826575875 -1.200540781 3.402244806 0.1620333195 1.626286507 -0.7460898757 0.915769279 1.296658158 -0.06386958063 
inc -1.387111664 -2.605577946 1.920470595 0.9461835623 3.024753571 1.242497563 -3.127253532 -2.475143909 0.4211142659 0.2502771318 
most -2.15020299 -0.7110420465 -0.1814324111 2.292690992 0.4610390365 -0.3689797223 1.350744486 -0.2088592499 1.033613682 -1.515456319 
corp -0.8924832344 -3.257623911 0.9274162054 0.07081836462 3.02948761 0.7618274689 -2.479245186 -1.652048588 0.4860916138 -0.3670607209 
aug 3.558846712 -1.033711433 2.932117701 2.604921818 -1.200787306 0.2904135585 3.570614576 -4.693255424 -0.1752681434 3.158931017 
loss 0.5197371244 0.8745602369 3.267101765 -4.092494965 1.992357135 2.202822208 1.924836278 1.204293251 3.741935253 0.6362804174 
time -0.001464174944 2.911857128 -0.1430974603 0.6007640958 1.678649306 0.8564895988 1.786617279 0.02455427684 0.9874384403 -0.3553531766 
forecast 2.780277491 0.9766488671 -1.201422811 -0.7291027308 0.3115335703 2.200644493 2.833801031 1.507859468 0.4499999583 4.278136253 
' 1.456661582 -0.349580884 -0.5424867272 0.5286396742 1.356541395 0.6423408985 -0.05032355711 0.3246254921 0.8846709728 -0.1426430941 
exchange -0.1654994488 -3.0145998 -0.3640143573 3.668771267 -1.827413082 -0.9306086898 0.2208452076 -4.11223793 1.003538251 -4.257966042 
due 0.1352564245 -0.1121988669 -0.6632950902 1.190421343 0.3363974392 0.09398011863 2.089733362 0.6055342555 0.5323223472 0.01250582654 
% 4.683216095 -0.2795136571 -4.148285389 -0.4436667562 -5.895634174 2.52410841 1.409130812 -1.083160996 3.773889303 3.903512239 
china 1.739593983 0.7305639386 -1.644465446 2.161161661 0.8271644115 -0.3517721593 -0.4073697627 -1.017048001 1.482037306 -1.375844717 
early -0.5276471972 -1.276454687 0.204238236 1.694826603 0.2461508214 1.197787166 2.057632208 2.549947023 0.4429450035 -1.017715454 
rise 0.2564043403 -0.7124106884 0.08893596381 1.247430444 -1.008261681 -0.4661662877 2.209475994 2.27596426 1.541482091 2.04897356 
dealers -2.031682491 -0.9420927763 1.170038104 4.783607006 -1.182246327 0.9028787613 2.349397898 -0.9345808625 -0.9953838587 0.3485941887 
cut 4.511763096 0.3000983894 -0.1490375847 5.823366642 -2.096220732 0.5154668093 0.9993131161 1.641679525 2.287105799 -1.349202394 
money 0.2882107198 -0.4842328429 -0.7125626802 3.305264473 -1.089272738 0.2953609824 1.593622923 0.4719938636 0.9045623541 -0.3901720941 
& 1.443638086 -1.327224612 2.011638641 0.4589079916 2.342086792 1.377665162 -3.052627563 -3.979260206 0.342825532 1.434045911 
investors -1.732892752 0.09023398161 -0.7119727135 2.58809948 1.260255694 -0.1503333449 0.3573386073 0.6735804677 1.982474566 -1.774644613 
between -0.3876452148 -0.9195998907 -0.5685258508 -1.188812852 0.3757441342 1.188735723 0.1265673786 1.731463313 1.26934886 -0.07319618762 
five -2.066277504 0.6616609097 -1.00171566 -1.354861379 1.166628718 0.08731434494 2.850507975 0.5867699981 1.522823572 0.1662868708 
since -0.003130460391 -1.444468141 -1.71617806 0.03976759315 1.89907372 0.9525036812 -0.5936501026 1.720916152 0.06678726524 0.8675043583 
current 0.8220197558 0.6471877098 -1.39788115 -2.196055412 2.189532995 1.254423499 1.866679668 1.498345613 1.468209267 1.689983487 
results 1.552893758 0.8603605032 1.80659759 1.38351655 2.186016321 0.02957795188 1.796393275 0.2284356803 1.049671292 3.007217884 
earlier 1.157630324 -0.006380287465 -0.9662570953 2.192530394 1.625373363 1.257130623 1.793993354 3.133562326 0.1619886011 3.031586885 
open 1.183464885 -0.04918423295 0.09723382443 1.945638061 1.446928263 -1.175683022 1.656374931 1.845035195 2.70888257 -0.115522109 
because -1.187646151 1.422374845 -1.82568109 1.011931539 1.04658711 0.9389785528 0.9474236965 0.2716636658 1.020958304 -0.6831033826 
trader -3.014003515 0.8082026839 0.4116075635 3.89155364 -0.2295562476 1.350813746 1.501846313 -2.580587149 -1.916999936 0.2939340174 
bonds -0.9498295188 -0.7888213992 -1.772242308 -1.77435267 1.725116611 -0.7788418531 2.092887163 -3.037919283 0.3904106021 -1.564694285 
four -1.279754877 1.544466019 -1.118600488 -0.6984723806 1.048528671 -0.2298305929 2.31608057 1.020339847 2.43438077 0.6735973954 
20 -0.003449464217 -0.9038252234 -1.803249836 -2.065556526 -0.2714779079 1.296038866 1.60318315 0.1243587509 0.633010149 0.9762208462 
london -1.611447334 -1.800988913 1.508726716 1.454963326 -0.8718247414 0.5183969736 0.08259276301 -1.010509968 0.3322520852 0.09983482957 
steady -0.6899661422 -2.400837183 0.2490431517 4.012621403 -3.630723238 0.4568188787 2.404540777 -0.1580220312 0.6544460654 -0.9705556631 
october -0.9557401538 -0.8982085586 1.813303947 0.91255337 -0.4803453684 0.2325004041 3.945077419 -1.714727759 -0.2375839949 -0.03364112601 
co -1.54903686 -2.171549082 4.949462414 0.7820353508 1.50458324 2.895180702 -2.972353935 -2.456920147 0.4881745875 0.09523072094 
world 1.130076766 -0.7461110353 -0.4372789264 0.4313441217 1.730469823 -0.9081916213 -0.3030942678 2.145360947 3.803140879 -0.2285267413 
late -0.04393255711 -2.699334145 0.2096324116 2.523648977 -0.3539142609 1.062401056 1.886057019 1.467009783 -0.1054662392 -1.032605767 
v 3.26230669 -2.523700714 -0.006138728932 -4.902591705 -0.3311177492 3.594799995 -5.162817001 -4.091515064 6.772776127 -0.6596332788 
people -0.7673585415 3.366389751 -2.086946011 -0.01911818981 0.5489434004 1.266708374 0.0775270611 -0.5426217914 2.009982347 -0.6406735182 
before 0.7777227163 -0.1178923994 0.2034585327 0.2126363367 1.224700689 1.801843047 0.6318269968 3.197329283 1.446938515 0.5617339015 
seen -0.5241368413 0.5037068129 -0.5070887804 0.9460707903 0.2575039566 0.6690359116 1.701592922 0.781011641 0.9857907891 -0.4942232072 
now -0.2596211433 2.65758729 -2.121119261 1.971189022 -0.4974099398 1.290253997 -0.2844301462 0.3510829806 1.880580068 0.2763624787 
record 2.639846802 -3.559027195 1.697271824 1.251394033 1.924198627 1.471377373 1.216732502 3.317020655 0.4637489915 -0.9000996351 
back -1.096000433 -0.1587577164 -0.1928040832 0.5592855811 0.8108271956 0.1852350533 1.407837272 1.89780724 1.599144697 -1.019271374 
news -0.4659689963 -0.5255793333 1.06247735 4.855422974 2.075906515 0.6372976899 -1.007106304 -1.156097889 -0.1926044375 -0.4348655939 
under -0.7804973722 0.3414520621 -0.1466267556 0.30769521 0.6519299746 1.681657314 -1.213112473 1.123090148 1.521204472 -0.4089989066 
national 2.976803541 -1.282001972 -1.00508678 0.8493795395 2.676740646 -1.063183665 0.395676136 -2.185996294 0.1664907634 -0.03347366676 
if 0.1811019182 2.642419338 -0.3544004858 1.93910563 0.5188408494 2.961971998 -1.358662724 1.450100899 1.643313169 0.07822879404 
kong -0.9830245376 -1.167089224 -1.096705675 1.711188674 -2.881332636 3.435846567 1.361052036 -5.78676939 -2.817716122 -3.839155912 
told 2.071258307 -0.3987338245 1.978952169 2.220204353 3.890928984 2.969012499 -4.825359821 -0.6285809875 0.9267214537 0.9176308513 
firm -1.065705776 -1.545019031 0.2402769476 2.038043737 -0.3388295472 0.6085746884 0.8157247901 -1.243965149 -0.3742082119 -1.032892942 
report -0.1488994062 -0.3410469294 0.1797860861 2.342576265 1.394644976 -0.8258433342 0.6222823262 -1.06217587 -0.0806370154 1.301119447 
half 0.8446068168 1.678093314 2.75720644 -0.7528912425 2.064285994 2.290710926 3.057766438 3.699836254 1.235132217 2.215914488 
growth 1.376982331 0.4986070693 -1.183770776 0.7371820211 0.9246872067 -1.056057692 0.7609570026 0.5467243195 2.216298819 3.037928581 
2 1.441490293 -2.508737803 -0.3684958816 -1.0007267 -1.313412786 0.824005127 0.5396046042 -0.8094182611 1.245959878 1.796307325 
minister 3.760092497 -2.403551579 -1.125556827 3.367022753 5.128211498 -0.571521163 -3.338701963 -1.537457585 1.854099154 -1.275260925 
deal 0.1504289657 -0.04810292274 -1.632843494 1.405284405 0.8743132353 0.379948169 -0.3652625084 0.3871397376 1.342304587 -1.224659562 
international -0.05453531444 -1.059286237 0.8535450101 0.3459464014 2.391814947 0.1760474741 -0.5779342055 -1.704697609 0.2580881119 -0.2850047648 
average 0.9743717313 -0.9976068735 -1.957136154 1.223787069 -3.209620714 0.1725941598 3.738973856 0.2776795626 1.248405457 -0.1023232192 
around -1.294704556 0.05025103688 -1.193211675 -0.6640598774 -2.000399828 1.792947531 2.628025055 0.4012151957 -0.1453864723 -0.468655616 
wednesday -1.234608173 -0.2685658932 1.340102911 2.037456512 0.1173984557 -0.3005607724 2.314548254 -0.7254379392 0.4508479834 -1.392445326 
gold -0.3807765543 -0.7445160747 0.1979456842 0.9624002576 -1.968567252 0.9942249656 1.416665792 -1.529205203 0.1940592229 -0.5659886599 
31 0.7197722197 -3.140221119 -0.4740202129 -1.576802611 -1.112560868 1.860316515 1.297196269 2.270761013 1.461911798 5.284072399 
hong 3.128794193 -0.07922566682 2.241911888 3.179991007 1.171618819 -3.462574482 -2.358873129 -1.917288303 3.9903512 4.171661854 
added -1.550818563 0.6272169352 0.6703489423 2.343073368 -0.0136508802 3.144575357 -0.8739375472 0.2792160809 -1.184434533 0.8156053424 
bln 1.895174265 -2.537160873 -1.088294148 -2.121958971 -0.5304801464 1.879906774 2.954889297 -4.564307213 -0.4228187501 2.437429905 
bond -0.5949939489 -2.346236944 -0.4287308753 1.076988935 -0.2515612841 -0.6196103096 1.152258158 -0.6039169431 0.2340219617 0.50717628 
made 0.316059649 0.3716905415 -1.295616508 0.7182151079 1.943217635 0.9692863226 0.1048915014 0.7943423986 0.4807629883 -0.1562560797 
state 0.457953006 -1.255346894 -1.249473095 0.7988193631 2.527496338 -0.8274348974 -1.356969833 -2.091324329 0.9696725011 0.4536829293 
just -1.360887527 2.028875351 -1.243535519 0.6625387669 0.7131949067 1.484071851 1.434796214 1.291781783 1.059680104 0.4215722978 
strong 0.5229043365 -0.0940707922 0.725622952 2.038088322 1.650690913 -0.4229171276 1.80652833 0.6118397117 0.9903720021 0.3772561848 
years -3.369976044 3.33172226 -1.181300044 -1.16934514 0.989967823 -0.03096258268 4.016450405 0.1961713731 2.594586372 1.741422653 
european 2.240494251 -1.074819446 -0.4720052183 1.051854372 2.345452309 -0.2772887051 -0.6762706041 0.681117177 1.925152421 -1.082566977 
united 2.657610416 -0.8472251296 1.669403672 0.7915733457 3.283236265 0.1370100677 -1.792745113 -1.303262234 1.574077249 -2.003076553 
she -0.2957293391 1.783178449 -0.9383499026 2.015999556 0.9654297829 0.9041907787 -1.558867574 0.5532218218 2.22441721 2.201098204 
traded -2.430584192 -1.403693676 0.7589691281 -0.02027478069 -1.301494002 2.01969409 3.811030149 -1.301173091 -0.3635911345 -2.44058466 
companies -1.297621608 -0.4828419089 -0.8326565027 0.4275170863 1.99017489 -0.395013988 -0.2166384459 0.4254952669 1.818954229 0.004784701858 
data -0.013098781 -0.7095748782 0.6515009403 1.482804179 -0.06206564605 -1.245548368 1.215736628 -0.002423183061 1.671693444 2.178086519 
south 2.677162886 0.4290556014 -0.4991055727 1.688928843 0.9872525334 -0.2522583306 -1.386310577 -2.672077656 1.92667675 -1.814404845 
goods -3.943146944 -1.849316359 4.198776245 0.985206306 6.421165943 0.4620102346 1.642053604 0.4842919409 -0.335436672 5.479833126 
set -0.0579084307 -0.6066467166 -1.448974848 1.235407233 0.6943523288 -0.7615423203 0.8998290896 0.9207590222 1.993367672 -0.7457410097 
low -1.058128119 -0.3357873559 0.6291351914 1.350914478 -1.274701715 0.9430308342 3.073511839 0.7449369431 0.17427589 -0.3429280221 
offer -0.07297799736 0.4993084967 -0.9935655594 0.4052900374 -0.2866546214 0.7660781145 0.3256836534 -0.3507151604 0.8829246163 -1.65304184 
economic 2.428616285 0.5709013343 -1.246954441 3.283746004 1.568684459 -1.186019778 -0.6644748449 -0.359890461 1.825963616 1.251431346 
turnover -2.392364025 -0.6580082774 2.134947538 -2.394793034 -0.4124951959 1.376883745 2.136908293 0.664560318 2.184641838 -0.3437330127 
domestic 1.341263652 -0.8647410274 -1.044609666 -0.3416360021 1.743184805 -0.06358995289 0.6077525616 0.4296028018 0.9390236139 0.9371104836 
reuters 1.974175572 0.7229261398 -1.759205937 3.656878471 2.138352156 -0.6961986423 -0.09313379228 -3.767601728 -0.5026097298 3.724622965 
president 0.1075411066 -0.1377118826 -1.068064213 2.529065847 2.137470961 -0.5038306117 -2.884396076 -1.50385046 2.001561165 0.2918112278 
business -0.179257676 -0.4340012074 0.3305204213 0.3461460471 2.451025248 0.02963498421 0.3706947267 0.3820833266 0.7215681672 1.051578403 
securities -0.7217170596 -2.087783337 0.2431743443 3.228140593 0.8736435175 0.1022794694 -0.9508107305 -2.519033432 -0.7522197962 -0.07384172827 
capital -0.2026590407 -0.2433521748 -1.965130806 0.2246739864 0.6706203222 -0.8134394884 -0.4245428145 -1.075534582 1.40478754 1.17326045 
3 4.090586185 -3.326032639 0.8047768474 -1.313582182 -2.110898972 2.269557953 -0.8590918779 -0.7329010963 2.577028275 0.7755305171 
days -0.8100789785 1.853202462 -0.8462291956 1.147745609 -1.345087051 0.07080983371 4.107660294 0.1061659381 0.8431941271 1.26060307 
through -0.3510372043 -0.7030760646 -0.5577285886 -0.2082818449 1.165580988 1.858699441 -0.0132304756 1.732918024 0.2208165228 1.214320183 
wheat 0.5657756925 -1.749927163 -0.2960307002 0.9683541059 -1.302279949 -0.5177618265 1.654529929 -2.349890709 0.7204553485 -1.497763991 
official 0.8566204309 -0.917080164 -0.4550027549 4.219761848 1.103872299 -0.1935210377 -0.3145366907 -1.167594671 -0.5927898884 2.288061619 
period -0.08867681772 0.3793437481 0.009424204007 0.4698662162 -0.3427195251 0.03514484689 3.693532705 0.9829396009 0.5789555907 3.568228483 
monday -0.4572880566 0.1691122651 0.706137538 3.171258926 -2.078691483 -0.2719376385 3.180664539 -1.317225695 0.3842262328 -1.029191613 
11 0.2497279495 -2.275213957 -0.5666228533 -2.255135775 0.5083284378 1.652763009 -0.2919302285 0.4376469851 1.10878551 2.531750202 
support -1.03119719 0.531950593 -0.6278451681 2.524909973 -0.1441683471 0.8219532371 1.91261363 -0.1798016429 0.3892212808 -2.027817726 
investment -0.1737284511 -1.371322632 -0.01305182278 -0.06378843635 2.714164734 -0.4020680785 -0.7845435739 -2.694610119 0.518528223 -0.4422545731 
buying -0.5353728533 -0.9918181896 1.052581429 2.506955147 0.7540516853 0.02175936662 1.338036656 -0.438508749 1.384371638 -3.204368591 
crude 0.2174504548 -2.778393507 -1.694114327 1.12618649 -1.359156251 0.04802843556 2.031714201 -0.2129294425 0.4237566292 -1.4146806 
third 1.355760574 0.7935060263 -0.119552426 0.8043059707 1.556613922 -0.2322386652 2.104477406 2.566760063 2.123220205 1.342871308 
100 0.3797337711 0.01062844507 -1.408033252 -1.501665592 -2.104922533 1.334461927 0.7781966329 0.4071246982 1.895060182 -0.1348529905 
quarter -0.01708649471 0.8057492971 2.553660393 0.3553199172 1.79105556 -0.5056192279 3.28739357 1.265959144 1.764573932 2.027507544 
unless 4.212799072 -1.188355088 3.567883015 -2.025805712 -2.476231813 5.210020065 1.763450384 -2.366005659 2.118827105 0.9515305161 
compared -0.07698214054 -1.7594769 -1.350860119 -0.6326225996 -1.712061405 0.9638989568 5.568982601 2.281728268 0.7314651608 0.464361608 
fall 0.280336082 0.4435017705 -0.2393388301 0.4138874412 -1.535467625 0.298578918 1.269185185 0.7780174017 1.716151357 0.8896921277 
another -0.2957487702 0.6483027935 -0.3590600789 1.419793367 -0.3359284103 2.579767942 0.1838038713 1.511036515 -0.06130447239 0.4870539606 
very -0.7861572504 2.580679178 -0.4473462105 3.238765001 0.7970772982 1.229464173 0.4156402051 0.169087857 1.223870635 -0.3941295445 
parent 4.452151299 -1.890235901 0.896014452 -1.40696907 1.050876141 1.786438346 3.017259836 -0.6037042737 2.969003439 6.983016014 
cash -0.31742993 0.3466697633 0.1789934784 1.325037599 -1.56835413 0.5619555712 1.577993274 -1.722275257 0.6256216168 -1.526108265 
her -0.7228512168 1.258998156 -0.01626741327 1.420215845 1.604288459 0.96751827 -1.779755473 2.608291149 3.823966026 -0.2748925984 
singapore -0.1502325237 -1.628162026 0.4363491237 0.8489346504 -0.6278184652 0.7081711292 0.9398912787 -1.006162286 -0.112923488 -0.09451247752 
brokers -2.631267548 -0.5861637592 1.184978247 3.113221169 -0.5289117098 -0.07990340889 0.422332406 -0.9317938089 0.2071439475 0.02751987241 
fund 0.910785675 -0.3803310692 0.606271863 0.8330819011 1.003474474 0.6126165986 -1.076149583 -1.485108972 0.6152980328 -1.761545062 
buy -1.495024085 0.04943123087 -0.8839697242 0.8763507009 0.08554700762 0.4087186754 -0.6224527955 -1.520320892 0.9155587554 -0.8151770234 
production -0.79356426 -1.250514865 -1.210682154 -0.8653005362 1.385606408 -1.226216197 0.6008905768 0.1284058541 2.161786795 1.535354137 
sept 1.239625216 -2.51208806 -0.138566345 0.9186393023 -2.144920349 0.6391307116 3.348484039 -2.275883198 -0.1630058438 0.7033387423 
any 0.8051706553 3.812208414 -0.6815161109 1.272195697 1.209672451 2.421648264 -0.3868426681 0.1653842926 1.344461679 -0.05644487962 
5 1.841636896 -1.301188827 0.2158214301 -1.619308591 -0.8714942932 1.628956795 0.9066572189 -0.7436201572 1.513444781 0.328910172 
should 1.158517003 0.4943534434 -2.821966648 0.6921821237 3.981791258 2.713044167 2.126003265 0.9400418997 -2.375837326 -1.36060822 
earnings 1.539862275 0.578839004 0.2661523223 0.5407711267 0.6581423879 0.7866647243 2.218123674 1.711891651 0.8335714936 1.16320765 
nil 1.594553947 0.06561690569 5.641103745 -3.152196884 2.673692942 2.545684338 -1.60205853 -1.692888498 5.419190884 2.133999586 
good 0.1964842826 1.562625766 0.3764131069 1.817467093 1.825169921 1.163601637 0.9751874208 0.5350108743 0.04882158712 0.2394300252 
so 1.384448767 2.3057971 -2.184681654 1.642845988 0.7289845347 3.883463621 0.4029975533 1.885042667 -0.5204623342 1.114871144 
ahead -0.8801940084 -0.5575603247 -0.4558730721 1.581222177 1.145291448 0.3778222203 1.03911972 0.9319540858 1.121606469 -1.214008689 
financial 0.3842003047 0.05572137609 1.701948524 0.5833807588 1.794503093 0.9195218682 -0.02691521682 -0.2243819088 0.3774850965 0.2601684928 
increase -1.196305156 0.3739899695 -0.4101009965 0.6477336287 1.888031244 0.2127722651 1.276377439 1.861149549 1.15453887 2.301550627 
rupees -0.9827497602 0.5074252486 2.600793839 -0.8151463866 -3.404724836 1.828254342 3.500636339 -1.668626428 1.997931123 -2.153195143 
following 1.079833746 -1.799203992 0.06154803187 1.493533492 0.3656778932 0.03215939179 0.6446954012 0.8829472661 0.5505930781 0.7255286574 
being -1.579325795 1.721660495 -0.8284655213 1.406507492 1.661446214 0.3353729844 0.3115963638 -0.5284154415 1.240680218 0.002149789594 
22 3.19275403 -2.82653904 0.2432467192 -0.08282871544 -2.516880035 1.900564671 1.501953602 -1.354349852 0.172037527 2.018362999 
ago 1.731789351 0.265253216 0.2307063937 1.162593603 -1.35241735 2.87909317 1.42338562 3.854758024 0.5268034339 5.445827484 
gmt 2.367004633 0.01501934603 1.034275532 0.2433653921 -1.455832243 0.7764402032 1.421018839 -2.027996778 0.1013758704 -0.2479150146 
gains -0.7665448785 -1.140887737 0.05992396176 2.583429813 -0.3709979057 -0.4200460911 2.357586145 0.7258324623 1.492863774 -1.199011803 
dividend 2.807529449 0.8620895743 3.037931919 -2.672952652 1.408150554 3.691850185 1.684043288 0.4844897687 0.2191021591 1.219549894 
exports -0.1152109951 -0.5203793049 -1.126178861 -0.7332922816 1.215374112 -0.8257390261 2.246850252 -0.9881910086 1.149816751 0.9972193837 
russian -0.05797432363 -0.2945305705 -1.843702197 0.115103133 0.7844893932 -0.2196877897 -0.4623037279 0.5593796968 1.420141697 0.4788924456 
during -0.5538291931 -1.009650826 0.1822086871 1.212308526 1.571277142 1.062782764 0.6256916523 3.059071302 1.134071708 0.7634515166 
officials -1.32638371 0.4354455471 -0.4601734877 2.321960211 2.074742794 0.3809169829 -0.9599171877 -0.7262628078 0.833650887 -1.075416327 
same 0.6093707085 -0.1421715021 -0.3059441149 0.7383640409 0.5918157697 0.4819092751 3.692302704 3.178002596 1.351006866 2.562115669 
december -0.3961769938 -0.8303437233 -1.027107954 0.5601506233 -0.2190243006 0.3691610098 4.208981514 -0.06592210382 -0.4464057982 0.8141818047 
latest 4.762096405 1.108318806 3.407788754 1.050109506 -0.9551105499 2.866174698 4.083498001 -0.4647046626 0.3708076775 0.9610632658 
products -1.905700088 -1.686169267 -0.7180811167 0.0184581466 2.491367102 -1.454435229 0.2716128826 -0.6193228364 1.895215511 0.5801994205 
range 0.4196946919 0.08621662855 0.02214880101 0.5702855587 -1.282870054 1.270602703 3.483453989 0.5906569362 0.0754192993 0.0350009948 
contract -0.7167586684 -1.482450843 -0.08782478422 0.2031168491 0.01107003354 0.5399358273 2.230232954 -0.03911007568 0.04732859135 -1.210087419 
issue 0.8343584538 0.7225922346 -0.8116090894 -0.2084964514 -0.7542274594 1.393507123 0.5097953081 -0.9873823524 0.2179881781 -0.348271966 
= 3.62816596 -2.229676008 -0.4659390152 -0.3103128076 -2.77399826 2.881131649 1.098103642 -3.652086496 -0.7814719677 2.547562361 
basis -1.609801173 -1.071487665 1.077053189 -0.0326622352 -2.097009182 1.850589752 3.423847914 1.340753675 0.1219230518 0.1613627076 
power -0.5796524882 -0.8899024129 0.5958521962 0.09688870609 0.3839332163 1.079048753 -0.4054664373 -2.199277163 -0.1936795264 -0.2390286326 
make 0.01372393686 2.706408262 -1.059687138 1.089748621 0.2338647693 1.734712362 -0.8931067586 0.004144490696 1.819526076 -0.2708813548 
analyst -2.499937296 0.1121260002 -0.259676218 2.971634865 0.6786137819 1.020187497 -1.525488615 -2.917206049 -1.040277839 0.9230249524 
unchanged -1.156544685 -1.802559018 0.5142070055 1.077039599 -1.31788528 0.3857880831 3.913507223 -0.4327585697 0.3820849657 -2.105616808 
sold -0.4171910286 -0.3823078871 -1.633795977 0.008731578477 -0.3144884109 0.6660111547 1.606022835 -0.5082042813 0.00452986639 -1.012670159 
reported -0.5741241574 -2.305045366 0.9934065342 1.515285611 2.032026768 0.1383987069 0.932245791 0.07640010864 -0.2860505581 2.17023778 
statement 0.481726855 0.3770136535 2.375988245 3.052891731 1.821225882 0.7688763142 -1.446661115 -1.000950813 -0.2255791277 1.897992373 
figures 0.8829717636 -0.3984467089 0.1616907418 2.13687849 1.790311933 -2.061143637 1.869948506 -1.112462163 0.8684327006 1.521440625 
much -1.333305955 2.622535229 -0.9462327957 1.289576411 1.923672915 1.343819499 1.732440472 0.2253126055 0.1381828636 -0.414187789 
both -1.16379261 -0.2491755933 -1.249275446 1.147201777 1.056914091 -0.3614487648 -0.05602997169 0.111574769 2.001394272 -0.9769780636 
5,000 1.46562326 -4.71693325 0.8692201972 -3.921929359 -1.753776073 3.142519951 0.4825109243 -0.270147115 5.003230095 2.268588066 
weekend -2.06460762 0.182385847 -0.9906282425 3.567983389 -0.9680378437 -0.1301276237 2.375128031 -0.720422864 0.8344732523 -1.603731513 
4 2.86159277 -2.658721447 0.932334125 -1.247364998 -1.441314459 1.506450176 -0.2218161374 -1.325309992 2.656340599 1.023238063 
japan 1.998837233 0.6620785594 -0.3040969074 1.336363792 1.067254901 -1.282712698 0.4407613575 -2.575394869 1.170834661 -0.4148987532 
23 4.194764614 -2.977485418 -0.9975614548 1.245724916 -1.865992904 -0.4872793555 1.380671501 -1.299846053 0.8608618975 1.63086307 
durable -4.239173412 -4.323768139 -4.783867359 2.048297405 3.046996832 -4.814289093 2.347031832 -2.55728817 3.12665534 3.513817072 
home -2.37386775 -1.14146328 -2.446469069 -0.7565796375 2.529378653 0.03397455439 -1.158239722 0.5923916698 1.599273682 0.1304453611 
today -0.3830621541 0.8896310329 0.5056362748 3.673261166 -0.5593761206 1.001892924 0.8675711751 0.1513854116 0.3678750694 0.06614553183 
australia 1.623754025 -0.2089791447 -1.878565311 -2.451429367 -0.8983638883 1.72252059 -1.520296097 -3.296256065 3.783595324 -1.49485755 
1997 1.700257301 -0.9684246182 -2.234235048 0.03042667173 -0.6152575016 0.1776754558 2.022509336 1.40216279 1.362152696 2.456367016 
n 3.869671106 -0.5136117339 1.798568368 -0.2221263945 2.970086098 2.182287931 1.674760461 -5.719830036 -1.419499516 4.675754547 
police -1.044646502 0.04014410451 -1.373578906 1.681830764 1.39112103 0.673835516 -2.344164848 -0.4377095699 0.954646349 1.564990163 
income 0.8972039223 1.105052829 2.360704899 -2.814960957 1.302028537 1.140446186 0.629378736 0.08281203359 3.711618662 -1.431509018 
level -0.3549742103 0.7729305029 -0.8183713555 -0.1753629595 -0.7465925217 0.9377534389 2.673805714 0.2145472467 0.2694868743 -0.9367408156 
dealer -1.807857275 0.7406983972 -0.6079698205 5.351195335 0.6133688092 0.7551448345 2.247960329 -2.878718853 -1.880825043 2.008645296 
meeting 2.065353394 -0.4443724751 -1.193229556 3.312806606 0.5154682994 -0.4255024493 -0.1495795846 0.8953077197 1.434236884 -0.06499158591 
including -0.7308652997 -0.8884441853 0.2883203626 -1.210171938 1.731554985 0.07179512829 -0.2448250502 -0.4894068539 1.536669135 1.16800344 
12 -0.04838740453 -0.2396071106 -0.1591714472 -1.464682221 -0.4221767187 0.049045939 1.714767218 -0.4307020009 1.573359966 1.750965238 
50 -1.290664077 -0.3886419535 -1.365859985 -1.732198358 -2.874366522 1.004352093 1.401520252 -0.6370638013 1.736382246 -0.637016058 
debt 1.473603249 -0.6455447674 -1.564810395 -0.6997722983 1.430203199 -1.120454669 0.635905683 -2.390048027 1.024223208 0.6425613761 
markets -1.183026791 -0.283774972 -0.7920974493 2.078650236 0.4972199202 -0.3188246191 0.250964433 -1.288357854 1.296113014 -1.979172945 
canada 1.12691164 -0.9777452946 -0.2390659004 1.42516613 0.02690782025 -1.236403108 -0.3706474006 -1.777296662 2.164605379 0.2001252025 
unit 0.1288006902 -2.618083477 1.010685802 0.9307861924 0.3373446465 -0.09927268326 -1.305513263 -1.933310986 0.8862115741 -1.799110174 
did -1.359137416 1.69047308 -2.493221998 2.309169769 2.808874846 4.341686726 -0.9516209364 -0.0510074757 -1.341286063 -0.6750354171 
can 0.06634800136 1.380756259 -2.467039347 -0.17782332 2.67003727 2.85519433 0.3835814595 -0.2215707451 -1.324229836 -0.1811517626 
what -0.1159401238 2.445407629 -3.180382252 3.738707304 1.024128437 2.186675549 -1.582791686 0.1217908189 0.6662006974 1.098355889 
long -0.9351500273 0.9477103353 0.7859057188 1.290363908 0.8997317553 0.7781696916 0.5999338031 0.6969223619 1.517775059 -1.66455698 
mexico -1.256952524 -1.692001581 -0.753708005 0.6373075247 -1.168924093 -0.5338055491 0.3324596584 -2.298663616 1.053231359 -1.061272144 
industry -0.3389451504 0.1117094457 0.4742841721 0.9918946624 2.654644012 0.198573485 0.1583845764 -2.074310541 -0.07819095254 0.7623205185 
banks 0.0605757162 -0.697960794 -1.063190222 2.657002687 -0.09915857017 0.06912234426 0.619538486 0.4909396172 0.4999737442 1.010894775 
take -0.4660751522 2.682915211 -0.6784006953 0.9234512448 -1.023765445 1.607782722 -0.8437511921 1.379585147 3.293298244 0.001741940505 
city -0.5421046019 -0.7513437867 -0.31456092 1.158304572 -0.52314502 0.02632446587 -1.216098905 -2.472097158 0.64922297 -0.2993667126 
paper -0.187490806 -0.6864140034 -1.937216043 0.8967570066 -0.9803453088 -0.5119439363 1.902210355 -1.033311486 0.4971240163 -1.334120631 
each -0.8694523573 -0.04843766987 -1.542377591 -1.165046334 -1.441069841 1.968568683 0.8328549862 0.7126458883 1.636894822 -1.195958734 
selling -1.692600489 -0.927415669 0.3515070379 2.253535748 -0.7748146057 0.5252281427 2.219805241 0.1049775034 1.192256927 -1.706880093 
0.1 -0.6143266559 -3.415904522 0.7453287244 -4.059846878 -1.799250722 3.468547344 0.6364271045 -1.510715961 2.711355209 6.050610065 
see 0.2444262803 2.413694382 -0.3795853257 2.128222942 -0.5796566606 3.239757061 -0.3875889182 1.132557273 1.042160869 -1.140961647 
number -0.5552660227 0.6783195734 -0.2841755152 0.6438407898 1.41857481 0.0294819735 0.9423424602 -0.1055145264 1.374201775 -1.123265505 
operations 1.388498425 0.4352588654 0.9228998423 0.2262840718 1.249069095 -0.05331868678 0.2727485001 -0.6464250088 1.69125104 -1.354608417 
yield -0.7983017564 -0.8277453184 -1.559646845 -0.1012115777 -3.032706022 1.082700849 3.845077038 -0.4127606452 0.08496912569 0.5597443581 
bid 1.245965719 -1.455772042 -2.241449594 1.068294287 -2.278683186 0.5709950924 2.094533205 -1.808957934 -0.276060164 -0.4736284018 
india 1.469135284 -0.6268106103 1.184114814 0.698900342 2.099490166 -1.048941731 -0.7106557488 -4.04310894 1.443453908 -1.171089053 
going -0.5076994896 4.230175495 -1.118647456 1.14894557 2.729076862 2.803344488 -0.002316099824 -0.3281539977 0.2858011425 0.4733813405 
local 0.02057116106 -0.9319348931 1.276703477 0.4708323181 1.174076438 0.7829117179 0.4899030328 -1.169706702 -0.03098742291 -0.8222750425 
pesos -2.635275126 -2.733013153 -0.838568151 -2.225570202 -2.408112049 0.4101857543 3.642711401 -1.054813266 1.139064193 -0.2733924091 
operating 1.221385121 1.408600807 1.457890511 -1.877570033 2.656485796 1.316096425 0.05712631717 0.2701063156 2.883761168 -0.0151333902 
key 0.4482887089 -1.249092937 -0.01733065024 2.587881804 -0.4923499227 -0.2474648803 1.615357995 -0.3825545907 0.671562016 0.3342104554 
little -1.013330102 1.49521327 -0.9057091475 3.048389435 0.3796233833 1.480206847 1.692044854 0.862201333 -0.004943085834 0.3849285245 
chicago 0.7785466313 -0.9351617694 -0.3240591586 1.072438598 -1.850845695 2.341425419 -1.003730536 -3.77095294 -1.385887861 0.4014349878 
yr 5.115625858 -0.7769837379 0.1737596691 -1.112469435 1.504539251 3.140355349 2.884769917 -3.834568739 0.1973108202 4.112832546 
german 1.188249707 -1.771780729 -0.7678547502 2.828491688 0.2069670111 -0.5445685983 1.128163099 1.469804645 1.638020515 -0.6004677415 
service 0.2631560266 0.2702480555 -0.8229898214 0.07995543629 2.282061815 0.8382855654 -0.981738627 -1.9782933 0.2248346359 0.4802449942 
profits 0.03523964435 1.611851096 1.540846348 -0.04752044752 1.992303491 1.281043649 1.512082577 0.1255712509 0.593693316 -0.05984366313 
gas 0.5515988469 -2.311937571 -1.832283735 0.37617594 1.054294944 -1.37489295 1.536197424 -1.298930883 0.9233981967 -0.3346586823 
our -0.3619147837 3.027122736 -0.8825757504 1.567439079 0.7785720229 1.70837152 -1.476530075 -0.3096835017 1.593775272 1.178233385 
indian -0.5068299174 -1.130451679 0.6466441154 0.8614766598 0.09854053706 0.6688579917 -0.5998319387 -1.637680292 0.707029283 -1.112116337 
name 0.7966247797 1.869814157 5.742170334 1.864940524 1.778311253 2.405976772 -2.600767136 -2.308416605 2.782485008 0.4091002941 
past -1.336533904 0.7272995114 -1.250828505 -0.200094223 1.302636385 1.416349769 2.186381817 3.445818901 0.8300091624 3.316362143 
many -1.296444535 1.76725626 -1.657458782 1.607080698 2.079738379 1.247502446 -0.5087510943 0.5489726663 1.491451621 -0.5991486907 
put -1.523154616 -0.1309384853 -0.6201002598 1.5532552 0.02020670474 0.6471627951 0.1884265095 0.5162798762 0.9396290779 -0.3601190746 
full -1.594946504 1.276754856 3.282566786 0.4930721223 0.3097993433 1.989570975 -2.958870888 0.01972923428 3.33208704 4.340622902 
short 0.9205872416 -0.05403698981 -1.273914695 1.421019554 -1.241248012 1.478677034 1.011588693 0.7133590579 0.331413269 -1.706198931 
treasury -0.07975827157 -0.5351830721 -0.5408639312 1.071214914 -2.272026539 -1.406426191 1.991054296 -2.040538311 1.909808874 -0.01244682539 
tonne -0.1042799801 0.7644651532 1.073269367 -0.3659138978 -3.343869686 1.659506917 3.767909765 -0.8977935314 0.4267670214 -0.9603359699 
previous 0.6827097535 -1.102160811 0.2971455455 -0.1683553904 -0.7547420859 0.8375651836 2.104571342 2.09066391 0.7698954344 1.164976954 
plans 0.3143306673 -0.2615871131 -0.7490823269 -0.6837895513 1.679321885 1.432122707 -0.7943172455 -0.9620655179 -0.2016794235 -0.1869915277 
major -1.393444061 -0.4103218317 1.479988933 0.7984108329 3.041092634 0.2950550318 1.057190776 -0.05171948671 1.019025326 -0.09752759337 
despite 0.5008759499 -0.1424281597 0.7418001294 1.437535405 0.8729479313 1.051345944 1.224493146 1.152581811 0.6045737267 -0.2278802991 
sector -1.710919738 -0.3869524002 -0.6488388777 0.5840435624 1.204850674 -0.110015884 -0.5710327029 -0.6038698554 0.5976816416 1.370427966 
further -0.9834362864 -0.3416873813 -0.3759942055 1.466947198 0.3127643764 0.9568862915 0.5682861209 0.970235467 0.6401840448 0.390119046 
west 0.536803782 0.2801580727 -0.4699949324 0.6698700786 -0.5964101553 0.1528773159 0.4275560677 -2.294775724 1.240564466 -1.158634543 
tuesday -1.498520255 -0.2842922807 -0.04623496905 2.589997292 0.7662172914 -0.3643360138 1.551697135 0.4237108231 0.4661926329 -0.2718496025 
remained -0.9028430581 -0.8935714364 1.253721356 2.447413921 0.20831047 0.9828481674 1.629651666 0.3553575575 0.2665876448 -1.367284536 
6 2.870658875 -2.008268356 0.4150843322 -1.785075545 -0.387116611 2.037631035 -0.131182462 -1.605877638 1.193673611 0.4136325419 
start 0.4614916742 1.415566802 0.05072532594 2.657211781 -0.005194540136 0.5355098844 0.9646899104 2.487665892 2.441469431 -0.296579808 
recent -1.254580975 -0.2297240347 -0.7733226418 1.128964663 0.8158845901 0.3359869421 0.4904435277 1.105161786 1.523113251 -0.596783936 
amount 0.8914380074 1.174327135 -1.257089734 -0.09068843722 -1.738501072 2.561814308 2.356284618 0.5969446301 0.07537902147 1.47955966 
cargo -0.2331567556 -1.054347873 -0.2111351341 -0.03313717246 0.1573306769 1.09910512 1.345573545 -0.710927546 -0.5230273604 -0.5136702061 
move 0.04279815406 1.645357728 -0.9132102728 3.087453127 -0.2182041258 0.719245255 0.4590179622 0.5322033167 1.323781371 -0.7492192388 
taiwan 0.6105416417 0.532030046 -0.3869599998 1.660913706 0.5546765924 -0.02613838762 -0.7750217319 -0.4105124474 2.20968008 -1.247479081 
lost -2.438242912 -0.8491693139 0.6313157678 -0.2896262109 -0.8529849052 1.341794372 1.917036295 0.4532887638 0.7018302679 -0.681315124 
mark 1.046009421 -0.8859736919 0.9687430263 1.011685252 -0.8620278835 -0.7618675232 1.787479877 -0.4192548692 1.273318648 -1.892468572 
american 0.1566133201 -0.6759063601 -0.1252680868 0.1537167281 2.167432785 -0.4601671696 -0.8677487373 -0.09805110842 2.672285318 -1.11384058 
board 1.035895228 0.7858964801 1.273745894 2.518473625 0.509111762 0.5870921612 0.3155797124 -0.563890934 1.091017246 -1.020190477 
auction 0.9513787031 -0.6673845053 0.2270220667 1.812470198 -1.15361011 -0.3916491866 3.130242348 -1.402999043 -0.02518336102 -0.02449881472 
levels -0.3189355731 0.1372518986 0.634283185 1.829493523 -0.106760405 0.4617729187 3.126230001 1.143827677 1.345738649 -0.9610093832 
economy -0.9523878098 0.4430658221 -0.4856960475 1.312595248 1.4692173 -0.6677848697 0.1503131539 1.148549199 1.748842597 1.06527257 
morning -1.095268011 -1.062398791 0.06083169952 3.829508066 1.227197766 -0.3625435233 2.325185776 -0.1042128503 0.09714780003 -1.374580741 
session -1.782020807 -1.184664607 0.7296537161 2.084842205 0.4652163088 -0.3766798675 3.373227596 0.4545382559 0.8115819097 -0.8443644047 
us 0.369969964 2.063811779 -0.9574196935 -0.02765627764 -0.5033710599 1.657462001 0.6050231457 -1.697531223 0.5526989102 0.3325034082 
currency 0.818402648 -1.82903409 0.4725658894 0.9665025473 1.58441925 0.4076750576 0.412296623 -0.7701408267 -0.1212792173 -0.5569738746 
newsdesk 2.268353462 0.2738361359 0.2989854813 0.4391455054 -0.09833994508 4.54912138 -1.252463937 -6.105419159 -0.3761591911 4.773746967 
spot -0.7050567865 -1.415660381 0.1542935818 2.037209272 -1.641347528 -0.6776331663 2.911720037 -1.72975862 0.965357244 0.128295511 
seven -1.279214263 0.423381269 0.0422767289 -0.7552999854 0.9765178561 1.059508681 2.694150448 1.732072711 1.025214553 1.175944209 
until 0.5779979825 0.01712415181 -2.034127474 1.630577922 0.3970991671 1.5107795 1.744780302 1.158562064 -0.1714286357 -0.3291783631 
slightly -1.735620618 -0.9196232557 0.6242426038 1.218586445 -0.1715102345 0.6241847277 3.44559288 0.7051836848 0.8626917601 -2.349862337 
canadian 0.7175686359 -1.421230793 -0.4851542711 0.8273624778 -0.6395424604 -0.5867285132 0.8916729689 -1.64011848 1.642403722 -1.739561319 
country 0.6538553834 0.6668744683 -0.1268741935 1.662082195 1.866976619 -0.3639355004 -0.7008811831 -0.9167584181 1.251160264 -0.3784947991 
offered 1.478347421 -0.6679242849 -1.927713037 0.410069108 -2.522145987 1.819161654 2.178590536 -0.821161747 -0.486599803 -0.6406206489 
final 1.305653453 0.3034115434 -0.5672999024 1.006661296 0.6324970126 -0.1666769385 0.7162142992 1.952972412 2.171444893 1.052398682 
change 3.488336802 1.000915647 -0.7817698717 0.4961889684 -0.3922199905 2.069728136 1.668032646 0.770409286 -0.06531219929 4.412606239 
based 0.1290938407 1.328125834 1.04360342 1.320690632 0.8240035176 -0.4376756251 0.04321262613 -1.444727182 1.619279027 0.1835444123 
took -1.384708166 -0.2314663082 0.9011145234 0.7021756768 1.289040804 0.7198152542 0.5235522389 2.099357605 1.709740758 0.8479524255 
palm 1.686207652 -2.878347158 -3.219956636 0.6414458156 -1.553293586 -1.282590508 2.448408842 0.001051196014 1.634655356 -0.2256510258 
well -1.009021759 1.184148073 1.107266188 1.466708302 1.840098619 0.1890910566 -1.156152844 1.632156253 3.24990201 -0.1134478524 
states 0.2707174718 -0.422565043 -0.725288868 2.684233665 1.219199538 -0.6644365788 -1.469794273 -1.01038909 2.113046885 -2.062176466 
even -0.3129218817 1.953229427 -1.455887794 1.590458512 1.963339925 1.137934208 0.7978919744 0.5420289636 1.026200771 0.1090865731 
cup 3.482839346 -0.8294174075 -1.93324852 0.9629293084 1.877542853 -0.9308312535 -0.5118394494 1.99277854 3.786946535 0.1720941961 
shr 2.288602829 0.9686501026 4.486045361 -4.70891571 -0.9713854194 4.80489254 2.611550331 -1.047975659 3.418796062 2.433149099 
near 0.3912491202 -0.4532290995 0.112741366 1.473982811 -0.3458827138 0.8896139264 1.140456557 -0.1723147184 -0.197380349 -0.8715160489 
wall 0.3680580854 -1.990088224 1.246916771 4.747070312 1.693377614 -0.1579989493 1.651128173 0.1719507575 0.1896682829 -2.723529816 
japanese -0.6574105024 0.01096813753 0.5974766612 1.491602778 0.8173955679 0.3726713359 0.6836485267 0.1825158298 0.6715225577 -1.130402803 
again 0.1449172348 1.316266656 -1.818857908 1.527002573 0.1533322781 1.82194972 0.3764435649 1.643712282 0.8989292383 -0.3507101238 
march 0.617041409 -0.3499716222 -0.2538244724 -1.031466484 0.1609631777 -0.5999147296 3.205029011 0.06903213263 1.02358973 1.635152459 
where -0.7829155326 1.2142483 -0.3504136801 1.279124379 0.9202919006 0.9125276804 -0.627022028 0.1220965385 1.312545896 -1.024823427 
96 6.544007301 -3.218827724 -0.7155147791 -0.7853642106 0.05875668675 1.163949132 2.343411207 -1.817405462 1.642304897 2.554805279 
div 0.3622222841 0.07020244002 2.863396168 -4.601583004 1.859155655 5.516139984 1.526248336 -2.875055552 -0.2066802979 0.5283707976 
15 0.761113584 -0.6036215425 -1.37083745 -0.978953898 -0.9298245311 1.581231713 2.556535006 -0.4445787668 -0.06958482414 -0.05033055693 
; 1.058273196 -2.614468813 -0.5179089904 -1.446203351 -3.46583581 1.117415905 2.416717529 -1.562782526 1.727180481 1.337947965 
likely -0.01019227691 0.446341157 -1.555024147 0.4224195182 1.106222749 1.654508233 0.7164687514 2.268334627 0.4854159057 -0.4682782888 
value 1.551731229 -0.3662371039 0.1691958606 -1.600928664 0.6000250578 1.132828832 1.130312443 0.3739326298 0.709895134 -1.185787559 
supply -0.5795629025 -1.122972846 -1.593403935 1.803951383 -0.3974590302 -1.021231771 0.7979671359 -0.461289227 1.341471553 0.220778659 
showed 0.0707359165 -1.702423692 0.6955191493 2.140021324 1.209071755 0.500282824 1.634507418 0.815957725 -0.330568254 1.974833608 
pay 3.321321249 -0.1432349533 0.2675414085 0.1288998276 -1.895599723 2.073975086 1.349802494 0.0172485169 1.162849188 -0.3248367906 
industrial -1.117757797 -2.877773762 0.06669536978 -0.2634268701 1.430813432 0.1480342597 0.8358498812 -1.202692151 -0.5744696856 1.269104242 
november -0.4209786057 0.232223019 0.1365528107 -0.8284307718 -0.891808629 0.5807663798 1.946570039 -1.490025163 0.5241267085 0.4623146355 
finished -2.793395281 -1.288873672 0.8095710278 0.5649430752 0.5717585683 0.3854029179 1.98779726 1.600183845 1.002808213 -0.04704332352 
held -0.9158983827 -0.6081049442 -0.8178068995 0.3524044454 0.2125239074 0.5671826005 0.3997138739 0.9885257483 1.382106423 -0.8785957098 
reserve 3.156953335 -0.4556342661 -0.7957149148 3.070737839 0.7010541558 -1.163876891 1.813134909 -0.5743970871 1.310924768 0.02527683601 
16 1.260775089 -2.16433835 -0.929689467 -1.500297546 -1.016759515 1.253403187 2.056920528 0.4496033192 0.4575070441 0.2564342618 
europe -0.08867722005 0.1167175174 -0.9644126892 2.194454432 -0.2651380002 -0.4815226793 -0.86937356 -0.1632508785 2.869129896 -1.074885964 
order -2.022650957 -0.08123292774 -1.512922525 -1.121480584 1.242093205 -0.7181260586 -0.1997106075 -0.1637826413 2.07863307 2.438720226 
go -1.481569648 1.651130795 -0.1078106761 0.4083946645 -1.283571362 1.286207318 0.9207363129 0.01976756193 1.701570153 0.2925291657 
like -1.284430265 1.776293397 -1.697013021 0.7603855729 1.324382782 1.664250851 -1.386532307 -0.2573748231 0.8701423407 1.117464781 
russia 1.680032492 -1.427518725 -0.3574653566 -0.77845788 -0.2110179365 -0.5231500268 -0.7793308496 -0.5548759699 3.448302269 -0.681871891 
gain -0.3232753277 -1.372317791 0.6556345224 -0.8020752668 0.230913803 0.01849497482 2.355880022 2.175390959 1.624632955 0.8814384341 
annual 2.279713631 0.3035437763 -2.166257858 0.3987495899 -1.358351946 -0.305978328 2.298932552 -0.1511691958 1.331102848 1.131771088 
these -0.6343728304 1.628424406 0.4499363601 1.4060992 0.9128617048 1.247354269 -0.2457655519 0.3889356852 0.8074826598 -0.6489221454 
date 4.43444109 -0.04507375509 1.226853609 1.195248008 0.1751645654 2.184129953 1.447903037 -1.413693309 -0.7897700667 2.892654657 
think 2.081633091 3.707123041 -2.18340826 2.932834387 0.8082560301 4.008765221 -0.9811086655 -0.006634429097 -0.2206318527 0.2191841155 
metres 3.641288519 -2.465866804 -2.091272831 -0.3503005803 0.4342259169 -1.211717129 0.2963644266 0.2657215297 3.268927097 -0.9906485081 
few -0.9846052527 1.04524219 -1.613976121 0.9081904292 1.217717767 -0.2320028543 3.074510813 0.4743452072 0.5651959777 0.373534292 
25 0.3861775696 -1.346703529 -0.3439703584 -2.364263773 -0.3599718511 0.5008887053 2.315159559 -1.025175929 1.034896016 0.7427613139 
announced 1.544030666 -1.826747656 -0.4679093659 1.664250493 2.467559576 0.9930222631 -0.2218600065 1.038045406 -0.4860488474 -0.2101532817 
street 2.588810682 0.73309654 -2.105954647 3.519785404 1.076583028 -0.04172992334 3.099708319 -2.904835701 -1.177229643 -2.448234797 
agency 0.1732646674 -1.905551553 0.3371109664 4.104254723 1.346975565 0.5762440562 -1.6369133 -0.5524857044 -0.07085282356 1.300656199 
light -1.188276052 -1.116981387 1.261501074 2.050016642 -0.7099984884 0.7112268806 1.681690574 -0.8693572283 0.5041623712 -0.5650855303 
billions 1.979515553 -0.6107628345 1.576400995 -1.746610641 -1.5296067 2.119850159 3.157529354 0.1583558172 -0.1547394097 2.263490915 
agreement 0.006351056043 -0.1162833944 -1.306383371 1.726949573 1.073381901 0.6198291183 -1.184903145 0.6637302041 1.210084796 -1.107116938 
7 2.143649101 -2.120383263 0.8926745057 -2.006847382 0.02618140355 0.9213373661 0.4183090627 -1.514535546 2.556453466 0.9760590792 
way 0.0649626404 1.528629422 -1.015835524 3.023803711 1.215663552 1.337775826 -0.2603960037 1.946635962 1.698578954 -0.7667034864 
although -0.3435659111 0.1810420454 -0.8886111379 1.991958857 0.03017397597 1.356755495 1.389909983 0.4694826603 -0.2604565918 -0.6099627614 
-$ -0.2593048811 -2.451253414 -0.5385187864 -3.635264874 0.4805358648 1.359314203 2.870941401 -4.432845592 1.390766621 0.2365388721 
bought -1.426555037 -1.452049375 -1.525342345 -0.6515117288 0.7436647415 0.6806127429 1.151150703 -1.588297248 -0.9319415092 -1.376709938 
already -0.1091691479 1.300533772 -2.188784838 1.833308339 2.00387001 0.9635650516 -0.6634677052 1.075147629 1.143290758 -0.5006933212 
holdings -2.128427267 -2.333580494 1.652292848 -0.2833249569 0.8320359588 1.369177461 -3.073517084 -2.182791948 1.27985549 -0.3269942999 
tokyo -1.212725997 -0.9890822768 0.4490116239 0.9119518399 -0.1153909415 -0.3385193646 1.25890553 -1.635216355 0.3232519329 -0.7814528942 
desk -1.420889616 -2.251698732 1.074471951 -0.2756450474 -0.7671108842 2.587779045 -0.8661566973 -6.57592535 -0.6402953863 0.9524826407 
mln 2.666501999 -1.6059798 0.0193397291 -2.87375474 1.000750065 1.713872194 2.148126364 -1.43666327 0.1996078044 0.7476596832 
inflation 1.23523736 -0.1237444952 -0.7641948462 1.496054053 -0.1005150825 -0.01476818044 -0.2927387655 1.318749428 1.775055289 2.184369087 
head 0.2045537829 0.3568519354 -0.2468194813 0.7125754356 1.506864905 0.08441317827 0.1103895754 -1.150352716 0.3928367794 0.7381278872 
pressure -1.42932868 1.002570033 0.3217932582 2.57340169 0.05174970999 0.6217505932 0.05203664675 1.357307076 1.807303548 -0.1990434676 
sources -1.073439717 -0.9624183178 0.5071533918 2.758539915 0.6834290624 0.5039310455 -0.255705148 -1.518440008 -1.090906739 1.035052657 
public -0.5236138105 -0.2206563503 -0.01593414322 -0.2415818274 1.68070972 0.7968128324 -1.611910462 -0.1234358549 1.532480478 0.6044145823 
chief 1.082952261 -0.1289188564 0.831610918 1.777265191 2.512192011 0.9289466143 -3.774693251 -1.648346424 1.081654906 2.174877882 
result 1.034493208 0.9987459779 0.7856458426 0.5264291167 1.075191498 0.7787005901 0.9590392709 1.378188014 1.227621913 1.47160387 
500 1.975501895 -3.448940754 0.1164637432 -0.5614717603 -1.552596807 1.786713243 0.9213356972 -2.089260101 1.40584743 -0.6642432809 
reserves 1.548214912 -2.212175846 -0.8678806424 -1.456377268 1.469228506 0.149009943 1.838868022 -2.29347682 -0.4749896526 -1.28444469 
quoted 0.1187283024 -0.6515868902 0.4722213447 1.928942084 -1.465343952 0.7213338017 0.5021489263 -0.8655821085 0.2747503221 -1.24067235 
profit-taking -1.784661174 -1.425298095 1.713200212 3.114527941 -0.7389326692 0.03558307886 2.070497513 -0.05495210737 0.7800744772 -0.4336793125 
them -1.290066838 2.453224182 -1.032207727 1.396259308 0.2356514186 0.8107598424 0.0760763213 0.9994866848 2.336694956 -0.9588186145 
funds 1.658427 -0.2773064375 0.403387934 1.535233378 -0.1109743416 -0.3089730144 0.56885463 -0.580933392 1.593465209 -0.7013504505 
prime 6.311316967 0.2638730705 1.875187039 2.034501791 2.606383085 1.893382072 -1.616827607 -0.3731057644 1.664766788 0.4722834527 
rally -0.02427408844 -0.4633346498 0.02013597079 3.011981487 0.5655241013 -0.3269278705 1.471711278 0.3311465085 0.6163865328 0.07320681959 
commercial -0.2481924891 -1.154075027 -1.497894287 1.704229832 1.928109646 -1.262636185 1.656881094 -2.836587191 0.03168494627 0.7001002431 
delivery -0.6693733335 -0.776863873 0.6032672524 1.09111917 -0.9332826734 0.8404993415 1.434965372 0.3707151711 0.542072773 -0.8926861882 
27 1.02181375 -2.975636482 -0.6305798888 -0.1760252118 -1.326089621 1.039567113 0.8092305064 0.1553933173 0.6798728704 2.39738059 
says 0.8398572206 -0.1773316413 -1.210244417 -0.1074210033 2.064185143 0.9804934263 -1.769729853 -0.3211443424 1.562770963 -0.3357942402 
team 0.1344633549 -0.00345821213 -0.8244669437 1.23131454 0.6482594609 0.5780032873 -1.009558558 -0.207327202 1.60573709 -0.7968379855 
yuan 0.6590031981 0.7858218551 -0.7984214425 -0.9524956346 -1.991533995 1.22541523 3.371864557 0.09298491478 0.8884686232 -0.875503242 
east 0.1415991336 0.1746731699 -0.0524350293 1.86863625 -0.6501263976 -0.2596208751 -0.09371123463 -2.170222044 1.034333229 -1.064627886 
services -1.100572228 0.02871309035 -0.4575821459 -1.066539884 1.409206748 -0.4542214274 -0.55275774 -2.125930786 0.9563667178 0.8833701015 
general -0.1670988202 -0.6156231165 -0.5453768969 -0.5333776474 1.782437682 -0.4999107718 -0.8982138038 -1.324017763 1.601196051 -0.7097318172 
credit -0.8382054567 -1.845565677 -0.4590700567 -0.2936368883 0.1786382347 0.5596035123 -1.214107156 -1.545189142 0.7621600032 1.902844191 
0.2 -0.1815564781 -3.756784678 -0.4828854799 -1.720323086 -0.2897751927 1.868010998 1.767856359 0.4807594717 1.980029702 4.242239952 
real 0.3458313346 -0.4068255723 0.8608145714 0.1891183853 -0.4990056157 0.518976748 0.3646139801 0.5311008096 1.540566087 0.7580627203 
though -0.5138627887 0.9400289059 -0.8353717923 1.405343056 -0.4060337842 2.138916254 1.486764193 1.57068038 0.1793987006 -0.7651501298 
below 0.02406868152 0.004533667583 -0.6359515786 -0.3264456987 -0.101924479 1.114133239 3.160438061 1.026881576 0.4473283887 -1.260464549 
b 0.7847035527 -1.631837368 -0.1008714065 -2.066045761 -1.091166019 1.700540066 -1.331429005 -1.458399057 2.233860016 -0.8198099732 
main 0.3083738685 -0.6337049007 0.1573697627 1.294069767 0.8439298868 0.1721978933 -0.4228255153 -0.7625719309 0.6231321692 -0.8778946996 
fuel 0.5098304152 -2.347369671 -2.735435247 -0.3220250309 -0.573990345 -0.9544439912 0.9801760912 0.06961911917 1.996350527 0.5584233999 
13 0.1636089683 -1.866929293 0.06074529141 -1.147848845 -0.2518038452 0.5678645968 2.001069784 -0.3019502461 0.534565866 0.7569319606 
mostly -0.9041568041 -2.51524353 0.8021306396 2.761644602 -1.392652035 -0.295915246 1.796943307 -0.5943059325 1.611023307 -1.922142267 
later -0.7894277573 0.3871946037 -0.7547120452 1.803033233 0.8935002685 1.177143931 1.416381359 1.03662169 -0.2309296429 0.5609804988 
leading -0.971088171 -1.592563868 1.455019593 1.088358879 0.178633064 0.02756908163 -0.1130415425 0.2886786759 1.730243444 0.1895154566 
spokesman 0.3262100518 0.01386517845 1.109833837 2.583834648 1.881495833 0.3468568027 -2.252197981 -1.561296582 0.311868608 1.271738887 
1994 1.342702627 -0.7941409945 -1.365426302 -0.5627286434 0.06744708866 -0.8524811268 0.8324534893 -0.3507434428 1.786770701 1.154906511 
won 0.6406444907 -0.273237735 -2.616163969 0.1153433174 2.237846375 0.3598249853 0.03820356727 0.9249016643 1.256490111 -1.188055754 
imports 0.1178569719 -0.8422834873 -0.5620917678 -1.391534448 0.5759900212 -0.918759346 2.619769096 -1.772608042 1.315597057 0.8945350051 
eight -2.645178318 1.244350314 -0.3164761662 -1.288151383 1.009440303 0.2994149923 1.470122814 0.4608507454 2.041922092 1.177733421 
led -0.9537543058 -1.911283135 -2.368460894 0.4375700057 2.394407749 -0.765753746 0.3843236864 -1.620038867 0.193235442 -1.412200928 
tender 0.8146349192 0.4795280099 -0.3123474717 1.582329631 -0.8010089397 0.4640472531 0.9584410191 -0.50028193 1.333521724 -0.803722024 
200 0.7205335498 -0.2511490881 -0.8795570135 -2.527336359 -0.6584866047 2.441082001 -0.3227011561 -1.0240134 1.705241919 -1.606581688 
issues -2.409753799 0.1073847115 -0.4676910937 0.4632330537 -0.1092659235 -0.02708176523 0.6069424152 -1.61698544 0.6524252295 -0.1607168913 
north -1.142629862 0.8523476124 -1.608553529 -0.1144587994 0.6927646995 0.3299152255 0.1655963957 -1.5842067 0.957288444 -0.707772851 
gained -2.48725462 -2.213552475 0.5146952868 -0.4409764111 -0.9515001774 0.9730713367 1.583208084 -0.5492001772 0.7962989211 -1.173045874 
8 3.087326527 -2.499589443 1.10540843 -2.7092309 -0.6266062856 2.122606754 -0.2567850649 -2.207443953 3.045751095 -0.5683333874 
beat 1.13172102 -0.7515559793 -0.944124341 -1.058429718 0.3827342391 1.003702998 -1.438203335 1.345650792 2.734628916 -1.772359848 
big -0.6912397146 1.260284901 -0.3597249389 0.7348200679 1.68168807 0.3922217488 0.9042931199 0.1621027291 0.5891183615 1.465087533 
top -0.9316878319 -0.3282364309 0.9360244274 0.2326344997 1.4464221 0.8118309379 0.436475426 1.420694709 1.293707967 -0.8317254782 
36 1.880186439 -2.321466446 -0.9320065379 -1.529935002 -3.147464991 1.440629959 -1.019063115 -4.27339077 3.487462997 -0.4475703239 
stake -1.303583503 -2.074454069 -0.2459238917 -1.138795972 0.9444385767 1.459389329 -1.233283758 0.106357798 -0.02809621766 -0.1269702315 
gdp 2.640520096 -0.3245343864 -0.4899097383 -1.92848587 -1.038614154 -0.3280429244 0.5180336833 -0.4218778312 3.188730001 3.047348738 
champion 1.952851295 -0.8388548493 -0.1917540878 -0.790125668 0.9281223416 -0.5020196438 -1.56609118 1.964969039 6.090133667 -1.718014836 
finance 1.398439646 -1.570242763 0.8861291409 0.5474875569 1.222711086 -0.1019823924 -1.011494637 -1.17599082 0.6264973879 -0.1480563879 
expectations 0.1190866381 -0.05775303021 -1.299046755 2.620557547 0.1007305011 -0.9791913629 1.701144814 0.3694887757 1.517239571 -0.1605863422 
benchmark -1.098446846 -2.110227108 -0.0257526245 1.841725945 -1.829939365 -0.1724449992 2.656572104 0.9593322277 0.8063418865 0.220046401 
oct 2.006157398 -1.828798413 0.6970916986 -0.2574000061 -2.274352074 1.317973495 3.429918528 -3.793728352 0.3018067181 0.307792753 
department 0.8846684098 -1.940479159 -0.05837316066 2.134501696 1.882986188 -1.809868813 -0.5494465232 -1.33821559 0.6644131541 2.362707376 
closing -0.7069838047 -0.5308372974 1.705868721 1.091957569 -1.054349422 0.6764118671 2.273130178 -0.1554087698 0.6693652272 -0.9748517275 
joint -0.6843536496 -1.077911019 0.7022029161 0.5647194982 2.212348461 1.01817143 -3.022212267 0.1081364974 2.428052902 -0.7470602989 
export 0.4051227868 -0.5663538575 0.5186465979 0.6611670852 1.149866104 -0.3093446791 1.281937718 -1.02599287 0.9960457683 -0.3495933115 
weeks -2.579576731 3.118203163 0.6255454421 0.5263688564 1.291466117 1.190576077 3.772305727 0.6633477211 0.48310256 0.8180930614 
came -1.391074061 0.5750421286 0.005106331781 1.823276401 1.015786529 1.471628904 0.3772349656 1.422049403 0.8139149547 -0.2655830383 
too -0.9964066148 2.370623827 -0.8973895907 2.398313999 0.8292498589 2.134033442 0.5650905371 1.250991702 0.4894457161 0.4884848297 
least -2.244686365 2.164849281 -0.8651384115 -0.1909993142 -0.448964864 1.536966205 2.728399515 -0.5670550466 -0.004822704941 -0.6000861526 
then -0.4877451062 1.349214315 -0.6711684465 0.2581130564 0.104172565 1.257057071 0.6571339369 0.7490229011 0.8916462064 -0.5090857744 
point -1.523082733 0.6835071445 -0.6652337313 1.735076189 0.33156389 -0.3308141232 2.552550793 0.2927792966 1.194480538 0.8830330372 
weaker -0.8356186152 -1.52233398 1.838517427 0.7922150493 -0.1035114899 0.8199346066 2.715397596 0.05266210064 0.6224660277 -3.084175825 
units -1.1185956 0.09398722649 0.3842066526 -1.504276156 -0.3070593774 0.5112783909 0.1338278055 -1.054608226 1.188536167 -0.5223863721 
part -0.2888238728 -0.4655345678 -0.1122676358 0.5465786457 2.496710062 -0.09147357196 -0.779173255 1.166556716 1.928451896 0.05536084995 
daily 0.6424565315 -0.4153118432 0.8719218969 0.8968206644 -1.316765904 1.315502286 1.717170238 -1.078001976 -0.3839949667 -0.1651127934 
9 3.823330879 -2.329615593 -0.4903321564 -1.854899406 -0.07877548039 2.378545523 1.559293866 -1.240895867 1.011922956 0.586340487 
60 0.5254970193 0.732832253 -1.383628488 -2.360340595 -1.577871323 1.6761235 0.5737348795 -1.696459413 1.310842633 1.478947163 
players -0.7914290428 0.3133973777 -0.548155129 1.341957569 1.455101967 0.3905957937 0.4688686728 0.8351761103 1.041256905 -1.00681901 
such -1.678289056 1.104359388 -0.9441629052 0.5086577535 1.775754213 -0.1039131433 -1.473345995 -0.07033786923 2.730398655 -0.4717974663 
federal 2.373238325 -1.280775666 -0.8767907023 3.791857719 1.04161036 -1.188850403 0.5229611993 0.1725988686 1.585555553 -0.4553745985 
shareholders -0.05317129195 -0.07884825766 0.2752379179 1.004631519 1.714221358 0.7502992749 -1.20954144 0.4835798442 0.8228278756 0.2796030343 
balance 1.65960741 -0.06052174419 -1.130499482 -1.570662737 0.2528147697 0.56135571 0.8249458671 -2.32060647 0.4361192882 2.1028409 
losses 0.7698483467 -0.7885925174 0.04501358047 1.962600946 -0.4679001272 -0.3195961714 1.238446474 1.213982463 1.598280311 -0.02358675376 
shanghai -1.467957377 -2.231505632 0.5930975676 0.3067148924 0.365906626 0.727189362 0.9203765392 -1.327052951 -0.5269564986 -0.6418073177 
21 1.132259369 -1.928062677 0.01467140485 -1.538335919 -0.05147956312 0.4128966928 1.39648509 -1.655508518 0.6792522073 1.122603536 
rising -2.465400696 -0.07886175811 0.3115855157 0.7906168699 1.45623827 0.1890875101 1.793002367 0.6996133924 1.700659037 -0.2075516284 
activity -1.759206653 -1.218669772 0.837016046 2.576856136 -0.8649550676 -0.4209448397 1.969384074 0.224412024 0.6356537938 0.04601946846 
however -0.8646339178 -0.1094312593 0.05519871414 1.965296745 -1.072496653 0.8570312262 0.1338500381 0.3494808078 0.8130732179 0.5911218524 
reports 0.7032149434 0.4014596045 -0.5080128312 2.256560802 1.231279016 -0.06004327908 -0.06649062037 -0.1410823911 1.135997295 -0.3848248124 
energy -0.7594017982 -0.09124692529 0.7621053457 0.8177050948 0.3108498454 0.6444301605 -1.703356862 -2.865729809 1.000161052 0.05514749512 
cost -1.044883966 0.5023309588 -1.634319186 -1.233446121 0.9267722368 -0.05874028429 -0.4387005568 -0.2119373679 1.689586163 0.6777008176 
call 0.1588462144 -0.7831090689 -1.116128802 1.849247336 -1.98865211 -0.1389956921 0.4215277731 0.3528220654 1.416642785 0.4162406325 
eps 1.321746707 0.8563055396 1.834391117 -4.0980196 1.978766203 5.569084167 1.601523042 -1.029845834 1.565782189 0.2414327115 
return -0.5251418352 0.1590634733 -1.038453221 1.557337761 0.4532483816 0.1866089553 0.5980045795 0.9769064784 0.9400138259 0.1126336679 
44 -3.979643583 -2.747892141 0.03531194851 0.2692379653 -3.040925026 3.655286551 -1.897731304 -1.248582482 2.224057913 2.870383501 
czech 0.7993527651 -2.14283371 -0.1754399985 -0.4507362843 -0.3792698085 -0.2425342351 -1.121144533 -1.053743958 1.99733448 -1.582935214 
cattle -0.7164039016 -1.552360892 -0.01152129378 1.523206353 -0.7988340259 -0.228272751 1.303314924 -0.1426172554 1.153412819 -0.6987008452 
seconds 1.562883258 -3.018828154 0.4041982591 0.1422721744 -1.537590384 0.6412141919 -0.4230778813 1.041346192 2.888166666 -0.9005702734 
hungary 2.702991486 -1.135521412 -1.1715765 1.283753753 0.4561184645 -0.8376691937 1.011302471 -1.899084449 0.1959866285 -0.6931613684 
far -0.6545143127 2.61023283 0.1146876216 1.197054744 0.4566731751 1.958252668 1.276244402 0.4413044453 0.751186192 0.5528438091 
according 0.3106262088 -0.1398949921 -0.2678662837 0.3833693564 -0.3235586882 0.9486555457 0.5074261427 0.9052584171 0.8598213792 0.9205285907 
specified 3.298705816 -1.507116318 3.913199425 -1.396157026 -1.539455891 3.013075352 3.111057281 -1.842251778 1.856023073 -1.26997292 
firms -1.048377037 -0.2294637859 -0.4822978079 -0.09371000528 0.959053874 -0.4462499619 0.3824586868 0.5305041671 2.087111235 1.476392984 
posted 0.7728552222 -1.092042089 1.220819831 -0.7602618337 0.4159066379 0.8554286957 2.397198677 1.134293675 0.7856689095 0.9822153449 
britain 1.407612801 -0.7073116899 -0.9508604407 -0.2630587518 0.3095093071 -1.920981526 -0.5231181979 -1.146261692 4.409983158 -1.120135188 
season 0.7899757028 1.312006712 -2.594006062 2.193373203 3.011278391 -1.1135602 3.06630969 -0.1395915151 1.376084208 -2.015390158 
play -0.07223153114 2.161655426 -0.5715560317 0.97518152 0.3462248445 1.051718593 -0.7239549756 0.3732282519 2.491283417 -1.517356753 
dollars 2.083550215 0.3415594399 1.115372419 0.2549518347 -1.301472187 -0.2706650794 1.873729467 -1.050178409 1.504660964 0.04423037916 
western -0.1548964828 0.2815162539 -1.120205045 0.7488145232 0.7194139957 0.4606053531 -1.206626296 -2.297390699 0.8619846106 -1.003782034 
40 -0.6358415484 0.05426535383 -0.4532619417 -1.660887599 -1.285004258 1.259099126 1.23513484 -0.4882086515 1.722449899 1.441899061 
security -0.3435988128 0.6621680856 -1.590154409 0.2649814785 1.83848989 1.252160549 -1.891199589 -0.8788896203 0.6720119715 0.5045887828 
copper -0.2534230947 -1.038238883 0.600163877 0.2534481883 -0.7555701733 0.6271215677 1.317415953 -0.768212378 0.782338202 -1.001636028 
rand 0.4735487103 0.2534977198 -0.8820389509 -0.9553379416 -1.379040599 0.6807447076 2.111681938 -0.5227155685 0.6216903925 0.2378984839 
meet 1.063551426 0.7168702483 -1.264394641 1.161051154 -1.511510253 0.8795129657 -1.055246472 1.078323603 2.855641603 0.03742393479 
come 0.2374596596 2.494103193 -1.54447937 1.701026201 -0.8628169298 0.317754209 1.132539392 1.47317183 2.509050608 -0.6267947555 
keep -0.457670182 0.3763528764 -0.124933213 2.389193296 -0.6951559186 0.5191269517 0.2737160027 1.3039639 2.354279518 -0.2401318699 
cuts 1.92004168 -0.04471281916 -0.04548345879 1.978429437 -0.9029851556 -0.4409111738 0.82837677 0.5832735896 3.356481791 -1.084604502 
honda 1.930053353 1.030775309 2.069645643 0.1634252518 2.037931919 0.750308454 0.8416895866 -0.08872830123 1.065496564 0.4031919539 
minutes 0.5176869631 -0.02112171985 1.600812078 1.842240572 0.2520049512 0.06758984178 0.3520467579 1.170464754 1.914701223 0.7650576234 
army -1.700868011 -0.1637116075 -0.611217618 1.74148488 1.470461845 0.2072336078 -1.916259527 -0.7868431211 1.750218391 -0.1735827476 
mixed -2.162857056 -1.738642931 1.236804008 2.966346741 -0.926872313 -0.2867085636 2.291715622 -0.7572039962 1.855434418 -2.060327053 
republic -0.4965302944 -0.7870853543 -0.002181173069 -0.2787083685 0.1542471051 0.01140161604 -1.614101648 -1.726864934 2.858155251 -2.249424219 
get -0.4592959881 3.212916851 -1.148573041 1.569014788 -0.1841346025 3.044054031 -0.7427248359 0.960637629 1.419160485 -0.1675353497 
highs -0.7650982738 -2.258436441 -4.031785488 3.626881599 -0.2277818769 -1.259654403 3.03582406 0.8381288648 0.6448689103 -1.080267072 
trust 1.661944032 -0.9051096439 -0.1369284987 -0.003297864227 2.110423565 0.1401192844 -1.318490863 -2.012378454 0.7435808182 -0.2672506273 
heavy -0.7036249638 -1.609110475 -0.172626406 2.12148571 0.9688652754 0.1126740649 0.6854677796 0.8242789507 0.7821209431 -0.9552729726 
agreed -0.5746888518 0.5179378986 -1.444103241 1.13082695 1.310513973 0.7851685286 -0.5910142064 0.1431962103 1.132271886 -0.1277754307 
policy 2.376343489 0.7215163708 -1.209093213 3.094681978 1.704010963 -0.4117640555 -0.1635993719 0.9434595108 2.4666605 -0.3321985304 
really -0.3178918064 3.206255198 -1.613318801 2.164759636 0.7811461687 3.013127089 -0.9370684624 0.6604603529 1.373885632 -0.4553055763 
estimated -1.330703497 -1.700003862 -0.6885679364 -0.2982649803 -1.391642451 1.649032354 3.746385098 -0.7832378149 -0.9793310165 -0.7857896686 
ten 0.8181494474 -0.3531790674 -0.6520015597 0.1537020355 2.333146095 3.743185043 -3.390348196 -0.1258818954 -1.081517935 1.622627139 
saturday 0.3019039035 -0.02561376244 -0.5924390554 1.601974249 1.105201721 -0.7261270881 0.3935633898 -1.028574347 1.2017169 -0.9735178947 
capacity 1.106431007 0.8472957611 -1.01067853 -1.485688806 -0.000626372057 0.9957693815 -0.1586623341 -0.6440677643 1.570058346 0.2934843898 
those -0.5030699372 1.82430017 -0.7892789245 0.6112495065 1.051219463 0.2586107552 0.5736807585 0.05276272446 1.883744359 -0.7913544774 
former 0.1603821814 -0.1448983252 -0.8283473849 0.5245905519 1.022378206 -0.1753232181 -1.74651885 -0.4775839746 2.764091969 -0.8694581389 
c 2.894046545 -1.678525805 0.7340505123 -1.858262777 -0.3296951652 0.9691407084 -0.3485015035 -3.82107091 2.59160924 0.5958939195 
mother -1.205223441 0.8431389928 2.141616583 4.024381161 3.154788971 0.1688551754 -1.006200671 -0.827532351 1.756417274 1.886933684 
term 1.577303886 1.558133483 0.1814873666 1.645426512 -1.056952715 -0.1530680209 1.3827492 -0.1380357593 1.421174765 0.08942484856 
contracts -1.172006965 -1.230761528 0.2939403057 1.16437149 -0.9766840935 1.195562005 3.187952995 -0.5720000863 -0.2091200948 -1.575553894 
active -2.477142096 -1.225814462 0.08154787868 1.673004746 0.6549556851 1.00784564 1.586289167 -0.1700445712 -0.3855321109 -0.718619287 
above -0.05803145096 -0.4291445315 -0.478972435 -0.1952505261 -1.597189784 0.668007791 2.898969173 -0.9283748865 0.7823618054 -0.8622546792 
australian 0.1848150194 0.274176538 -0.422990948 0.3322234154 0.09511679411 -0.3316403031 0.3669932485 -0.4057219028 2.159165144 -0.578818202 
saying -0.5699192882 1.07442677 -0.2053252459 2.758383036 1.022737741 1.407774568 -2.108877897 0.470649004 2.084558964 -0.7199159265 
continued -0.4636321366 -0.6416394711 -0.6869016886 2.086248875 0.1921989173 -0.2706028521 0.5618109703 1.00530386 1.120243073 -0.8612459898 
win 0.5876264572 1.610671401 -0.7361950874 -0.5068895817 0.7798473835 1.249513149 -0.6592363715 1.231754303 2.743598938 -0.3383194208 
used 1.006011724 0.2971087396 -1.348303676 0.4825185835 1.809038758 -0.2925678492 -0.6258709431 -0.4655314386 1.439500213 0.7256109715 
17 1.023454428 -1.423958182 -0.4023691714 -1.689358115 -0.1064549536 0.8649657965 0.9779703021 0.2543282509 1.133490086 0.9469769597 
hold 0.1214901656 0.393052429 0.2749512494 2.959428787 -0.8118056655 1.283363819 -0.4424676597 0.7923424244 0.853705585 -0.6338425875 
plant 0.413838923 -0.9082887173 -1.080039144 -0.2893569469 0.4761846066 0.4259268045 -0.3223055899 -1.217652082 0.3791341186 -0.5698411465 
largest -0.1606644839 -0.4829519987 1.17875874 0.3739733994 1.335698724 -0.007441439666 0.09150705487 -0.8740419745 1.21202457 0.4385203719 
bids -0.3344759941 -0.4217978418 -0.5444994569 -0.3905014098 -0.4973197877 0.3266367614 1.667299271 -1.974583149 0.4073538184 -1.597969532 
monetary 2.836587906 -0.02460799739 -0.6864535809 1.602481604 1.928375602 0.8049622178 -0.3492918611 -0.1999934316 0.5141499043 -0.8024204373 
don't 2.290947914 3.340065002 -1.638393879 2.400644541 1.085688472 4.75480032 -1.348852754 0.2092785239 0.4700050652 -0.2923784256 
party 0.1747652888 1.130095959 -1.322643161 1.741004944 2.551751375 -0.1000917405 -2.272608519 -0.9588156939 2.20058322 -0.5263727307 
you 1.170751214 3.965267658 -1.958340526 2.285779953 1.649380922 1.712117672 -0.369351089 -0.6957973242 0.9813178182 0.9024965167 
air 0.4659523368 -0.3361728489 -1.300915599 0.8642274737 0.02417132258 -0.1655608118 -0.878450036 -1.787961721 1.773495197 -0.9169112444 
levs 0.694224 -1.749453783 0.0562749505 -0.5944201946 -2.32395339 -0.4038648903 4.638862133 -0.6851457357 1.409114718 -0.311789155 
stated 4.947869301 -0.5820868611 0.7805629373 -2.30704546 -0.755421102 1.877968431 2.900560617 -0.9059267044 3.054160595 -1.60185349 
weekly 1.069954395 -0.6556786895 -0.5542597175 1.07853508 -1.308133006 -0.3717416525 1.664152384 -1.290399432 0.4019653201 1.829739451 
ministry 1.616690397 -1.176108479 -0.01776003838 1.739585519 2.259832144 0.140915826 -1.269938588 -0.3286550939 0.1757506132 1.031186342 
list -0.7911224365 0.1183302477 0.9199866056 0.6569700837 0.003879704745 -1.889110327 0.5177164674 -0.7244858742 3.550575018 -0.467569083 
19 0.06559891254 -0.9890565276 -1.828042626 -0.7754186392 -0.4149854779 0.6880437732 1.182404399 0.1669320464 0.7036556602 -0.1424015313 
overall -1.587664723 0.1456904411 0.0008303779759 1.303011298 1.843446016 0.1230297834 1.282001257 -0.7064779401 -0.3038936257 0.7200341225 
british 0.08495665342 -0.8171666265 -0.1215109453 0.7226635814 1.435898423 0.2617391348 -0.9555912614 -0.7140561938 0.8508540988 -0.5132997632 
times -2.218385935 -0.5191500187 1.167259455 0.02817505971 2.315274 0.4189761281 1.54615128 0.7541203499 0.2913089395 2.050020933 
moscow -0.4277109504 -1.099382997 -0.4796794653 0.7137312889 -0.2028580606 0.05244151503 -0.5748468041 -0.7831304073 0.8206970096 0.1517918408 
common -1.786255717 -0.2065393478 -0.3262350261 -2.456524134 -1.307742476 2.645069838 0.8786219358 -1.925473809 1.037061214 -3.133045673 
171 -4.019603729 -3.983012676 -0.6880589128 0.3260706961 -1.237618446 1.382383108 -4.237609863 -1.161484599 3.288249731 2.202297688 
tax 1.195948601 0.7044639587 0.540664494 -0.9853158593 1.766409993 0.5980021358 -0.3857030869 -0.2178289741 1.946229577 0.3007403314 
positions -0.8658101559 -0.0645583123 -0.955851078 2.593721867 -0.4732345641 0.7813529372 0.3344470263 -0.9727616906 0.7196512222 -2.265521288 
eastern -0.1519144177 -0.5170423388 -0.202954784 0.57130301 2.343610287 -0.2174301744 0.03918902203 -1.462788701 -0.01793317311 -0.5495621562 
hit -0.7005789876 -0.1667867303 -1.373579741 0.3877265155 1.162961841 0.3436847925 1.473091364 1.061713934 0.9992868304 -0.4611146748 
overnight -0.6100282669 -1.300405264 0.2234443128 1.980522871 -0.04632282257 0.976323545 0.8735595345 0.6329299808 0.3916582763 -0.6295815706 
chinese 0.2137380689 0.2892932296 -0.8878893256 1.584312677 1.153481007 0.4352652133 -0.1482880712 0.05880008265 0.5334522724 -0.3238598108 
afternoon -0.7810853124 -2.592647552 0.3623778522 2.66668272 0.6548190117 -0.1207899377 2.450818777 0.2345786393 0.0131678395 -1.602639556 
h.k. 2.4490273 0.6395760775 3.195401669 -2.595864296 -0.2619822025 2.073871851 -0.5785021186 -0.2659318447 5.617675304 0.07999006659 
18 1.0757972 -0.8130424619 0.5647696853 -0.9299620986 -1.0875597 -0.4244530201 1.417279005 -1.153009772 2.171144009 1.721818328 
almost -1.12956512 1.049454212 0.1282823086 -1.166094065 1.524415016 -0.3130942285 2.104604244 -0.4237900972 2.565785885 -0.7514966726 
do -0.07328741997 3.526490927 -1.650890827 2.491201162 1.079713821 3.528355122 -1.516675711 0.1883192062 1.083205581 -0.284894079 
saw -0.09555286914 -0.9822439551 0.2243780047 2.089708567 0.2256168574 1.881841302 0.4833710492 0.4842226207 -0.702463448 -0.2289509475 
run -0.9650157094 0.3458511531 -0.3760210574 1.00365293 1.223642945 0.444401443 -0.7072578669 1.3498348 2.370069265 -1.26972568 
nearly -0.9055068493 0.5111545324 -1.860169888 -1.154862523 0.1940954179 0.8892241716 2.438670635 0.6208252311 1.013836622 0.2690115571 
repo 4.126188278 -0.5661458373 -1.390842557 3.53162694 -2.595165968 0.592294991 1.387785792 0.8862841129 1.999553919 -0.2552753091 
talk -0.2379380316 0.7505206466 -1.035661697 2.961400509 0.3853907585 0.5219813585 -0.1002425402 0.5898463726 1.117892861 -0.5155022144 
flat -2.278092384 -1.815385818 1.10471642 0.932919383 0.005499347579 -0.2276355773 2.473530293 -0.6505017281 1.203196287 -0.3115036786 
firmer -0.7650734186 -2.128679037 0.6200478077 1.525794268 -1.899874926 0.3289100826 3.885696173 0.1221220642 0.3989365399 -2.085163593 
climbed -1.093397379 -1.353568316 -1.600417733 -0.123873964 -1.425163865 1.230044246 2.940219879 -0.2004259229 0.3803784847 -0.06028967723 
sharply -0.7149345875 -1.502279043 1.310240269 1.132919669 0.09206222743 0.1534685791 2.484936953 0.4636126161 0.8697115183 -1.425809741 
expect -0.5733360648 -0.03582478315 -0.933568716 1.581288218 0.6717250347 2.789631128 0.07916415483 1.242311597 -1.251253486 0.6402730346 
place 0.408124119 1.865402699 -0.4503863156 0.8678055406 0.8476244807 0.2283609658 1.288422704 0.1930132061 0.9830138087 -0.4511362314 
fourth 1.497132421 -0.6606576443 0.1199354529 0.6466559768 2.157822132 -0.7750574946 1.989859223 1.732830644 1.698414683 0.9152449965 
research 0.5752242208 -1.23271358 1.148686886 0.9261985421 2.139662027 1.006870747 -2.156890869 -2.584550381 0.2258457392 1.983929157 
region -0.9659894109 0.5747993588 0.03778659925 0.331115067 1.448377848 0.06393819302 0.3589481413 -1.176159501 1.017606854 -0.1526188403 
performance -0.06643483043 -0.0954875648 -0.4257353842 1.511309266 1.517095566 -0.3488376141 1.332528591 0.4152774215 1.016063809 0.163985163 
t 1.791865945 -0.6556290984 -1.190100551 -2.186803579 -1.324707627 1.890867949 -0.5726132989 -4.122597694 2.612174273 -0.3658025563 
542 -1.965539575 -2.701359034 2.260426044 -1.820548415 -0.772854805 1.288883328 -3.681921482 -0.7514753938 3.782812119 2.266183376 
lot -0.2528952062 2.326304913 -1.761401772 1.976149082 0.6681327224 1.444533348 0.7685881853 -0.3963299096 0.3289726079 -0.1210930943 
bills 0.6317767501 -0.9407269955 -0.1976379901 0.2456080914 -1.411365509 -0.6302630901 2.842732191 -1.71972394 1.813531876 -0.2425073385 
worth -0.3252562284 -0.2481857538 -0.9273095727 -2.738504648 -0.7719385624 1.833068609 1.954657674 -1.213026404 0.6682873368 -1.217094779 
war -1.075802088 0.3393311203 -0.9027093053 1.110344172 1.861009002 -0.9980492592 -0.05197064951 -0.2502219379 2.540232897 -0.695102036 
looking -0.3025983572 1.966829658 -0.3511324227 0.8558722138 1.046217918 1.391918302 0.9226108193 0.7210248709 0.5747723579 0.4670341313 
issued 1.250737548 -0.5992703438 -0.5165483952 0.7714999318 1.113982797 0.7280085683 0.3906557858 -0.2696628273 0.5745396018 -0.6232565045 
raised 1.210764647 -1.088808179 -1.713055968 -0.5887883902 1.707086205 1.425500751 0.3361056447 0.7332455516 -0.6653305888 -0.1708658934 
summer 1.161587119 0.8444344401 -1.084436655 2.324590683 0.8844037652 0.2105917782 1.252010226 -0.3409813643 0.7102494836 -1.465769649 
manufacturing -0.3052563071 -0.4209757745 -0.7097105384 0.7316952944 1.66343379 1.406788945 -1.42762959 0.3695074618 0.7868494391 0.9662157893 
holiday 0.49012658 -1.105062485 1.06961143 2.157755375 0.0631403923 0.4456249177 0.6739532351 0.6366286278 0.5746504664 0.2749097049 
area -0.9961669445 -0.08580170572 -0.6580693126 0.1012566537 -0.131095469 0.8509430885 -0.4218912423 -0.5788410306 0.6893655658 -0.1583360285 
series -0.1672675461 -0.9356670976 -0.7621728182 -0.7044644952 1.550468087 0.2527619004 0.6696280837 0.2601074576 0.8111147881 0.002493467182 
adding -1.314705849 1.358837128 -1.096558332 2.784154415 1.074270606 1.748657227 -0.3234429061 -0.6661373377 -0.6838876605 0.6842715144 
romania 1.987182498 -0.634596467 -1.353876948 0.3747835457 0.3163389564 -1.404830217 -0.5384346843 -1.382222414 2.114022732 0.9677040577 
match -0.2707733214 0.6833896637 -0.22390984 0.4020929337 0.6332684755 -0.06657516211 0.822014451 0.4214370251 1.606246948 -1.021845579 
game -0.6128381491 1.150443554 0.176120013 1.120209932 2.515660763 1.187814951 0.1223767474 1.0122962 1.099345803 -0.1261191219 
usda -0.006655901205 -2.385690212 0.10792014 1.380874038 -1.203967333 0.4417071939 0.939430058 -2.141706944 -0.2803268433 0.4374043345 
teresa -1.164106607 -2.292266369 -1.02784574 1.653764486 3.128890514 1.411658287 -3.918688297 0.4362231791 2.15662694 -2.04887104 
nine -1.560189009 1.124168277 -0.6703843474 -0.4408943653 -0.1424133778 0.5287942886 3.120755196 0.5341983438 0.9997112751 0.6861559749 
coming 0.3375440538 1.418111801 -1.318413496 2.111978292 -0.7285962701 0.7830950618 1.344180346 1.766761065 1.413801074 0.3200221062 
conditions 0.5101298094 1.843640447 -0.2533606887 1.873936772 0.1769654453 -0.3617707193 -0.5308690071 -0.3482218087 2.74420476 -1.1356529 
deputy 3.782215118 -0.548938334 0.5124186873 1.941384077 2.718902826 1.086522341 -1.094877958 -3.513692379 2.252524614 -0.4303701222 
runs -0.8401667476 2.390631199 -1.429046631 -0.2921552658 0.5905005336 1.372109175 2.076464176 0.9573745728 1.58248508 0.2624953687 
planned 0.31416592 0.4543109536 -1.170068741 0.9834197164 0.9209548235 2.473493099 -1.424290299 0.1184502393 0.09714547545 -0.6108499765 
terms 0.4607290328 0.6853185892 -1.742035031 0.8949860334 0.7119083405 0.2944512367 -0.5327407122 0.6370421052 1.356866598 -0.4839781821 
lead -0.9291275144 0.05798378214 -0.6849611998 1.50198853 -0.3982195854 -0.3152500093 0.4666181207 -0.4063185155 2.182385206 -1.236266613 
taking -0.5894665122 1.013741255 -0.1051277891 0.6220505238 1.000352144 0.5230392814 0.872176528 1.906132579 1.994471908 0.2458246052 
signed 0.2519716322 -0.3997554779 0.08446320891 0.5553417802 1.617207766 1.806586504 -0.848501265 0.7531116605 0.3468815684 -0.9193136692 
possible -0.7435930967 -0.0477385968 -0.106845282 2.246648788 2.097940207 0.5334277153 -1.189863682 0.5117490888 1.416328549 -0.1393842995 
cargoes -1.109134436 -1.097457528 -0.6138279438 1.155284882 -0.6238330007 -0.3662316501 2.037556648 -0.00323657738 1.196643472 -0.3890878856 
increased 0.05762292445 -0.4795268178 -1.674224138 -0.9774721265 1.591371655 0.7486149073 0.987862289 -0.08310844749 0.2776371241 -0.2858106196 
equipment -3.555826426 -3.205156565 -1.348235607 -1.143185735 3.48788619 -0.4475440383 1.28113687 -2.184717655 0.7736420035 1.891588926 
england 0.643873632 0.649686873 -0.7006798983 0.08442092687 0.9820091128 -0.1608834863 -0.8014705181 -1.032549858 2.343908072 -0.8533099294 
forward 1.47371304 0.4493018687 -0.7632949948 0.8490847945 -0.3926092684 1.304752469 0.7159481049 0.6579887867 1.187704682 1.226580381 
sale 0.349447906 1.092231512 0.1001203358 -0.1670693755 0.968501687 0.5593248606 0.2925913632 -0.1832212061 0.6384750009 0.1956546456 
cate -0.6511256695 -3.166765451 0.8467979431 1.579862356 2.837206364 0.4589699209 -2.833503723 -0.8296417594 1.36635673 2.515879869 
s 3.379367113 -2.309379578 0.7863215208 0.5093836784 0.7061043978 0.04471591488 -0.3922429383 -2.126312256 0.5747707486 1.622971654 
believe -0.1427335441 3.73707962 -0.5983740091 2.114152193 0.6044018269 3.650198936 -0.1541647464 -0.08758591115 -0.06872384995 -0.9849252105 
lots -1.266689897 -0.4143426716 0.4503479004 0.5091226101 -1.190047026 1.220027685 2.200638056 -1.435537457 -0.4372794628 -1.04005599 
1,000 1.94164598 -1.002738833 -0.2161217928 0.07598765194 0.2780471742 0.5907879472 1.198961258 0.6766753197 1.334161639 -0.4192985594 
position -0.1383794248 0.5381418467 -0.1288669258 1.514493585 1.047729373 0.2591811717 1.225320339 0.260925293 0.866068244 -0.0971089229 
29 1.021853566 -0.9498146772 -0.9178632498 0.4080789089 -0.8060004115 0.7205616832 0.2434441447 -0.6032907367 -0.04642583802 1.507740021 
corn -0.1744644046 -1.413552523 0.02168205753 0.01309063286 -1.385416269 0.2978449762 1.165641665 -1.011857629 1.698705792 -0.7046954632 
de -0.8834018111 -2.831362247 -0.6322094202 -0.3616097271 0.127610445 1.251601696 -1.198396683 -3.209465742 0.261411041 0.3977389336 
output 1.226189613 -0.8340521455 -0.5329137444 -0.2035755217 0.6125420332 0.05441756919 0.7555514574 0.02725196257 0.9854621887 1.589974165 
sets 0.7473618388 -0.7455038428 0.3703220785 -0.7380722165 1.677762628 0.6039770842 -0.3815996051 -2.215978622 0.8083643317 0.3375738263 
decision 0.5026164055 -0.3359927833 -1.064713001 2.839336634 1.36231792 -0.2621881962 0.1003513932 0.7767189741 1.24723947 -0.1244986504 
large 0.1947520971 0.1271528453 -0.8219943643 2.098776579 0.6858248711 -0.2077513635 1.957198977 -0.5333010554 0.6719869375 -0.269039005 
barrel -0.406022042 -0.4021831453 0.4868489206 -1.041438341 -2.212797642 2.223536491 3.14511466 -0.08103358746 0.08503982425 0.06760946661 
ukraine 0.6625543833 0.1513214409 -0.2576499879 0.9489440918 0.5568904877 -1.022869587 -0.7691403627 -0.467446804 2.903182745 -0.7567543387 
division 0.9148663282 0.1791390926 1.945086837 0.09225652367 1.165458083 1.037553787 0.05832892284 -0.1513773948 0.9494469166 -0.1178204641 
management 0.5711988211 -0.2374271899 0.02914879657 1.029361844 1.227148652 1.128497481 -1.580392122 -1.169385433 0.3824446201 0.2658086121 
say -0.4726689458 1.6736902 -0.6781257987 1.746106744 0.2578794658 2.20764637 -1.021630406 -0.1206101999 0.8382109404 -0.09448926151 
bourse -1.149303794 -0.8469287157 -0.4644394815 1.351701856 -0.5702602863 0.3765880167 0.6495611072 -0.2467198372 0.8148070574 -0.3305819035 
coffee -0.5279688835 -1.300338626 0.3889119625 -0.4882696569 0.6434170008 -0.8594419956 1.334329367 -1.132807493 1.881945729 0.8508905768 
kepit 0.5644439459 0.06921942532 -0.2680417001 -0.5444207191 1.060331941 1.578274369 -0.5088737607 -0.9699083567 0.703250885 -2.054953814 
deficit 1.880529523 -1.470177054 -0.7154618502 -1.490768909 -0.2000257969 0.2599411905 2.415254354 -0.003357837209 1.372356057 1.437517166 
league 2.334945679 -0.5635411143 -0.441082716 1.113717914 1.478550553 -0.06989885867 0.2606542408 1.783459902 2.495710611 -0.1050086096 
belgium 2.805632353 -0.3441441953 -0.8809633851 -0.6276012063 0.4827563465 0.1962119341 0.02593917213 -1.39360404 3.06248045 -1.268954396 
ringgit 0.5731166005 0.01284708921 1.030803204 -0.01179480646 -0.9912330508 1.106873035 1.899794698 -0.8973991871 0.3405317962 -1.768633127 
limited 0.1542041302 -0.5726630688 0.5623254776 0.9714312553 0.9962489009 0.8838752508 0.8807024956 -0.7367588282 0.1029881835 -1.013421297 
